{"learner":{"attributes":{"scikit_learn":"{\"_estimator_type\": \"classifier\"}"},"feature_names":["emotional_state","consecutive_losses","consecutive_wins","session_loss_pct","bankroll_pct_remaining","win_rate","avg_bet_ratio","sessions_completed","bets_in_session","sessions_since_last_big_event","is_at_risk","net_profit_loss_normalized","interventions_received"],"feature_types":["float","float","float","float","float","float","float","float","float","float","float","float","float"],"gradient_booster":{"model":{"cats":{"enc":[],"feature_segments":[],"sorted_idx":[]},"gbtree_model_param":{"num_parallel_tree":"1","num_trees":"200"},"iteration_indptr":[0,1,2,3,4,5,6,7,8,9,10,11,12,13,14,15,16,17,18,19,20,21,22,23,24,25,26,27,28,29,30,31,32,33,34,35,36,37,38,39,40,41,42,43,44,45,46,47,48,49,50,51,52,53,54,55,56,57,58,59,60,61,62,63,64,65,66,67,68,69,70,71,72,73,74,75,76,77,78,79,80,81,82,83,84,85,86,87,88,89,90,91,92,93,94,95,96,97,98,99,100,101,102,103,104,105,106,107,108,109,110,111,112,113,114,115,116,117,118,119,120,121,122,123,124,125,126,127,128,129,130,131,132,133,134,135,136,137,138,139,140,141,142,143,144,145,146,147,148,149,150,151,152,153,154,155,156,157,158,159,160,161,162,163,164,165,166,167,168,169,170,171,172,173,174,175,176,177,178,179,180,181,182,183,184,185,186,187,188,189,190,191,192,193,194,195,196,197,198,199,200],"tree_info":[0,0,0,0,0,0,0,0,0,0,0,0,0,0,0,0,0,0,0,0,0,0,0,0,0,0,0,0,0,0,0,0,0,0,0,0,0,0,0,0,0,0,0,0,0,0,0,0,0,0,0,0,0,0,0,0,0,0,0,0,0,0,0,0,0,0,0,0,0,0,0,0,0,0,0,0,0,0,0,0,0,0,0,0,0,0,0,0,0,0,0,0,0,0,0,0,0,0,0,0,0,0,0,0,0,0,0,0,0,0,0,0,0,0,0,0,0,0,0,0,0,0,0,0,0,0,0,0,0,0,0,0,0,0,0,0,0,0,0,0,0,0,0,0,0,0,0,0,0,0,0,0,0,0,0,0,0,0,0,0,0,0,0,0,0,0,0,0,0,0,0,0,0,0,0,0,0,0,0,0,0,0,0,0,0,0,0,0,0,0,0,0,0,0,0,0,0,0,0,0],"trees":[{"base_weights":[-1.3045263E-8,3.3749983E-1,-6.30435E-1,2.4037342E-1,1.8534465E0,-7.703839E-1,1.846039E0,8.906035E-1,3.439753E-2,1.641395E0,9.641144E-2,-6.0690945E-1,-1.2119198E0,-1.4717168E-1,1.9387383E0,2.216323E-1,1.1503254E0,-8.6987567E-1,1.7745309E-1,1.6912112E0,-7.777778E-2,-7.053269E-1,5.1683044E-1,-1.0462883E0,-1.5973145E0,-8.9999996E-2,1.1950759E0,9.738477E-2,-5E-2,2.2988962E-2,-5.253741E-2,7.083965E-2,3.5048146E-2,-7.440635E-2,-3.247749E-3,3.238317E-2,-4.5338064E-3,6.7809016E-2,9.155517E-2,-4.1768577E-2,-1.6820919E-2,4.6363696E-2,1.944232E-3,-5.786107E-2,-2.481233E-3,-8.230022E-2,1.903335E-2,9.040632E-2,-6.666667E-2],"categories":[],"categories_nodes":[],"categories_segments":[],"categories_sizes":[],"default_left":[0,0,0,0,0,0,0,0,0,0,0,0,0,0,0,0,0,0,0,0,0,0,0,0,0,0,0,0,0,0,0,0,0,0,0,0,0,0,0,0,0,0,0,0,0,0,0,0,0],"id":0,"left_children":[1,3,5,7,9,11,13,15,17,19,-1,21,23,25,27,29,31,33,35,37,-1,39,41,43,45,-1,47,-1,-1,-1,-1,-1,-1,-1,-1,-1,-1,-1,-1,-1,-1,-1,-1,-1,-1,-1,-1,-1,-1],"loss_changes":[5.2576953E3,2.3692744E3,2.9875764E3,2.0258881E3,1.2199951E1,5.8795654E2,8.5492676E1,6.319939E2,1.4863333E3,4.3932922E1,0E0,6.5887036E2,1.3893701E2,4.9679348E1,1.354895E1,3.092272E2,3.128474E2,7.809076E2,1.250767E3,9.507446E0,0E0,2.623855E2,9.413582E1,1.7059839E2,6.421033E1,0E0,2.1667837E1,0E0,0E0,0E0,0E0,0E0,0E0,0E0,0E0,0E0,0E0,0E0,0E0,0E0,0E0,0E0,0E0,0E0,0E0,0E0,0E0,0E0,0E0],"parents":[2147483647,0,0,1,1,2,2,3,3,4,4,5,5,6,6,7,7,8,8,9,9,11,11,12,12,13,13,14,14,15,15,16,16,17,17,18,18,19,19,21,21,22,22,23,23,24,24,26,26],"right_children":[2,4,6,8,10,12,14,16,18,20,-1,22,24,26,28,30,32,34,36,38,-1,40,42,44,46,-1,48,-1,-1,-1,-1,-1,-1,-1,-1,-1,-1,-1,-1,-1,-1,-1,-1,-1,-1,-1,-1,-1,-1],"split_conditions":[5.9924E2,1E1,9E0,1.094E2,2E0,1.332184E4,2E0,6E0,7E0,2E0,9.641144E-2,8.8E1,2.26515E4,9.313726E-2,5E0,3.11E0,1E0,1.5731E2,1E0,2.16E0,-7.777778E-2,2.571E1,1.50994E3,8.6E1,1.32E2,-8.9999996E-2,9.711164E-2,9.738477E-2,-5E-2,2.2988962E-2,-5.253741E-2,7.083965E-2,3.5048146E-2,-7.440635E-2,-3.247749E-3,3.238317E-2,-4.5338064E-3,6.7809016E-2,9.155517E-2,-4.1768577E-2,-1.6820919E-2,4.6363696E-2,1.944232E-3,-5.786107E-2,-2.481233E-3,-8.230022E-2,1.903335E-2,9.040632E-2,-6.666667E-2],"split_indices":[4,8,8,4,7,4,7,7,7,2,0,7,4,3,7,6,10,4,10,6,0,6,4,7,7,0,3,0,0,0,0,0,0,0,0,0,0,0,0,0,0,0,0,0,0,0,0,0,0],"split_type":[0,0,0,0,0,0,0,0,0,0,0,0,0,0,0,0,0,0,0,0,0,0,0,0,0,0,0,0,0,0,0,0,0,0,0,0,0,0,0,0,0,0,0,0,0,0,0,0,0],"sum_hessian":[2.47085E4,1.6093435E4,8.615065E3,1.5125505E4,9.679296E2,8.154909E3,4.6015598E2,3.6379153E3,1.148759E4,2.583383E2,7.095913E2,5.953177E3,2.2017324E3,2.042353E1,4.3973245E2,1.01791187E3,2.6200034E3,1.568406E3,9.919184E3,2.5483829E2,3.5E0,5.474124E3,4.79053E2,1.5425177E3,6.592147E2,9E0,1.1423532E1,4.3873245E2,1E0,8.579678E2,1.5994412E2,1.6433562E3,9.766472E2,8.865824E2,6.818236E2,3.6016536E3,6.3175303E3,7.821472E1,1.7662357E2,4.0464414E3,1.4276825E3,2.5722064E2,2.2183238E2,1.3878795E3,1.5463824E2,6.435412E2,1.5673532E1,9.423532E0,2E0],"tree_param":{"num_deleted":"0","num_feature":"13","num_nodes":"49","size_leaf_vector":"1"}},{"base_weights":[4.3719992E-6,3.2078114E-1,-5.993068E-1,2.2843093E-1,1.7648715E0,-7.322724E-1,1.7578816E0,8.467095E-1,3.2677922E-2,1.5624907E0,9.18141E-2,-5.554063E-1,-1.1083757E0,-1.431717E-1,9.231695E-2,2.1056673E-1,1.0938544E0,-8.2709783E-1,1.6860098E-1,1.6102173E0,-7.484255E-2,-6.544192E-1,4.9123564E-1,-9.777341E-2,-1.0281379E0,-8.610945E-2,1.1392425E0,2.1843776E-2,-4.9961712E-2,6.7385726E-2,3.3307932E-2,-7.078972E-2,-3.0856074E-3,3.077267E-2,-4.3071634E-3,6.453584E-2,8.718779E-2,-3.9378233E-2,-2.6001667E-3,4.173196E-2,-1.4065414E-3,-4.197682E-2,-7.6004975E-2,8.648199E-2,-6.449301E-2],"categories":[],"categories_nodes":[],"categories_segments":[],"categories_sizes":[],"default_left":[0,0,0,0,0,0,0,0,0,0,0,0,0,0,0,0,0,0,0,0,0,0,0,0,0,0,0,0,0,0,0,0,0,0,0,0,0,0,0,0,0,0,0,0,0],"id":1,"left_children":[1,3,5,7,9,11,13,15,17,19,-1,21,23,25,-1,27,29,31,33,35,-1,37,39,-1,41,-1,43,-1,-1,-1,-1,-1,-1,-1,-1,-1,-1,-1,-1,-1,-1,-1,-1,-1,-1],"loss_changes":[4.748121E3,2.1450637E3,2.700105E3,1.8301519E3,1.1103516E1,5.4163184E2,7.7631714E1,5.714717E2,1.3424769E3,4.0208923E1,0E0,5.7509753E2,1.7513525E2,4.5263367E1,0E0,2.7934177E2,2.834214E2,7.065022E2,1.1291868E3,8.645203E0,0E0,4.0641406E2,8.561734E1,0E0,2.1981885E2,0E0,2.0017258E1,0E0,0E0,0E0,0E0,0E0,0E0,0E0,0E0,0E0,0E0,0E0,0E0,0E0,0E0,0E0,0E0,0E0,0E0],"parents":[2147483647,0,0,1,1,2,2,3,3,4,4,5,5,6,6,7,7,8,8,9,9,11,11,12,12,13,13,15,15,16,16,17,17,18,18,19,19,21,21,22,22,24,24,26,26],"right_children":[2,4,6,8,10,12,14,16,18,20,-1,22,24,26,-1,28,30,32,34,36,-1,38,40,-1,42,-1,44,-1,-1,-1,-1,-1,-1,-1,-1,-1,-1,-1,-1,-1,-1,-1,-1,-1,-1],"split_conditions":[5.9924E2,1E1,9E0,1.094E2,2E0,1.177582E4,2E0,6E0,7E0,2E0,9.18141E-2,8.8E1,1.1E1,9.313726E-2,9.231695E-2,3.11E0,1E0,1.5731E2,1E0,2.16E0,-7.484255E-2,2.929E1,1.56308E3,-9.777341E-2,2.26515E4,-8.610945E-2,9.711164E-2,2.1843776E-2,-4.9961712E-2,6.7385726E-2,3.3307932E-2,-7.078972E-2,-3.0856074E-3,3.077267E-2,-4.3071634E-3,6.453584E-2,8.718779E-2,-3.9378233E-2,-2.6001667E-3,4.173196E-2,-1.4065414E-3,-4.197682E-2,-7.6004975E-2,8.648199E-2,-6.449301E-2],"split_indices":[4,8,8,4,7,4,7,7,7,2,0,7,7,3,0,6,10,4,10,6,0,6,4,0,4,0,3,0,0,0,0,0,0,0,0,0,0,0,0,0,0,0,0,0,0],"split_type":[0,0,0,0,0,0,0,0,0,0,0,0,0,0,0,0,0,0,0,0,0,0,0,0,0,0,0,0,0,0,0,0,0,0,0,0,0,0,0,0,0,0,0,0,0],"sum_hessian":[2.4696268E4,1.6086535E4,8.609731E3,1.5120717E4,9.6581854E2,8.1506543E3,4.5907715E2,3.6353318E3,1.1485385E4,2.5787357E2,7.07945E2,5.545369E3,2.605285E3,2.038388E1,4.3869327E2,1.01768823E3,2.6176436E3,1.5671782E3,9.918207E3,2.5437885E2,3.4947124E0,5.0664546E3,4.789146E2,2.2340147E2,2.3818835E3,8.9818E0,1.1402082E1,8.5785443E2,1.598338E2,1.6412961E3,9.7634735E2,8.853564E2,6.8182184E2,3.6007095E3,6.3174976E3,7.812488E1,1.7625395E2,4.149114E3,9.17341E2,2.879295E2,1.9098514E2,1.7237587E3,6.581248E2,9.404303E0,1.9977794E0],"tree_param":{"num_deleted":"0","num_feature":"13","num_nodes":"45","size_leaf_vector":"1"}},{"base_weights":[1.2548787E-5,3.0514178E-1,-5.7035017E-1,2.172108E-1,1.6873468E0,-6.9671327E-1,1.6812578E0,7.713598E-1,1.8468617E-2,1.4923409E0,8.781317E-2,-5.281611E-1,-1.0556569E0,-1.3974445E-1,8.830451E-2,1.0730873E-1,1.025256E0,-7.675045E-1,1.3792539E-1,1.5382285E0,-7.21797E-2,-6.22336E-1,4.671371E-1,-9.330192E-2,-9.790429E-1,-8.266941E-2,1.0895185E0,1.5125537E-2,-4.940633E-2,6.256395E-2,3.179895E-2,-6.913307E-2,-2.9315767E-3,2.7932698E-2,-4.641689E-3,6.1550166E-2,8.335042E-2,-3.6545254E-2,2.3615882E-3,4.3767285E-2,2.0246103E-3,-3.993655E-2,-7.25414E-2,8.3015226E-2,-6.2479563E-2],"categories":[],"categories_nodes":[],"categories_segments":[],"categories_sizes":[],"default_left":[0,0,0,0,0,0,0,0,0,0,0,0,0,0,0,0,0,0,0,0,0,0,0,0,0,0,0,0,0,0,0,0,0,0,0,0,0,0,0,0,0,0,0,0,0],"id":2,"left_children":[1,3,5,7,9,11,13,15,17,19,-1,21,23,25,-1,27,29,31,33,35,-1,37,39,-1,41,-1,43,-1,-1,-1,-1,-1,-1,-1,-1,-1,-1,-1,-1,-1,-1,-1,-1,-1,-1],"loss_changes":[4.292438E3,1.9525443E3,2.4469302E3,1.6639062E3,1.0292969E1,4.9191895E2,7.085669E1,6.72292E2,1.04427E3,3.692163E1,0E0,5.1966064E2,1.595979E2,4.1381863E1,0E0,2.3641211E2,2.5303735E2,6.398096E2,9.3740295E2,8.001038E0,0E0,3.6804773E2,8.348124E1,0E0,2.0109375E2,0E0,1.8552383E1,0E0,0E0,0E0,0E0,0E0,0E0,0E0,0E0,0E0,0E0,0E0,0E0,0E0,0E0,0E0,0E0,0E0,0E0],"parents":[2147483647,0,0,1,1,2,2,3,3,4,4,5,5,6,6,7,7,8,8,9,9,11,11,12,12,13,13,15,15,16,16,17,17,18,18,19,19,21,21,22,22,24,24,26,26],"right_children":[2,4,6,8,10,12,14,16,18,20,-1,22,24,26,-1,28,30,32,34,36,-1,38,40,-1,42,-1,44,-1,-1,-1,-1,-1,-1,-1,-1,-1,-1,-1,-1,-1,-1,-1,-1,-1,-1],"split_conditions":[5.9924E2,1E1,9E0,1.1133E2,2E0,1.177582E4,2E0,6E0,7E0,2E0,8.781317E-2,8.8E1,1.1E1,9.313726E-2,8.830451E-2,3.11E0,1E0,1.5731E2,1E0,2.16E0,-7.21797E-2,1.4277E2,2E0,-9.330192E-2,2.26515E4,-8.266941E-2,9.711164E-2,1.5125537E-2,-4.940633E-2,6.256395E-2,3.179895E-2,-6.913307E-2,-2.9315767E-3,2.7932698E-2,-4.641689E-3,6.1550166E-2,8.335042E-2,-3.6545254E-2,2.3615882E-3,4.3767285E-2,2.0246103E-3,-3.993655E-2,-7.25414E-2,8.3015226E-2,-6.2479563E-2],"split_indices":[4,8,8,4,7,4,7,7,7,2,0,7,7,3,0,6,10,4,10,6,0,6,8,0,4,0,3,0,0,0,0,0,0,0,0,0,0,0,0,0,0,0,0,0,0],"split_type":[0,0,0,0,0,0,0,0,0,0,0,0,0,0,0,0,0,0,0,0,0,0,0,0,0,0,0,0,0,0,0,0,0,0,0,0,0,0,0,0,0,0,0,0,0],"sum_hessian":[2.4662316E4,1.6067231E4,8.595085E3,1.5107314E4,9.599165E2,8.139005E3,4.560806E2,3.9871472E3,1.1120167E4,2.5657324E2,7.0334326E2,5.540009E3,2.598996E3,2.02722E1,4.3580838E2,1.1032037E3,2.8839434E3,1.4664097E3,9.653758E3,2.5309354E2,3.4796972E0,5.0614688E3,4.7853986E2,2.2247028E2,2.376526E3,8.930577E0,1.1341622E1,9.369645E2,1.662393E2,1.8231611E3,1.0607823E3,7.8459283E2,6.8181683E2,3.4188904E3,6.234867E3,7.787323E1,1.752203E2,4.355191E3,7.0627765E2,2.4401636E2,2.3452351E2,1.721339E3,6.551869E2,9.3502E0,1.991423E0],"tree_param":{"num_deleted":"0","num_feature":"13","num_nodes":"45","size_leaf_vector":"1"}},{"base_weights":[2.3880444E-5,-9.774466E-2,1.615844E0,2.0678325E-1,-6.6343033E-1,1.6224942E0,-7.61252E-2,7.7026045E-1,2.9011777E-2,-5.1998615E-1,-1.0527008E0,1.3147436E0,8.481613E-2,1.9528346E-1,9.9473596E-1,-7.5499254E-1,1.5240894E-1,-6.0452604E-1,4.442761E-1,-1.0777537E0,1.0484617E0,1.3914871E0,-7.7710785E-2,2.0013388E-2,-4.5262307E-2,6.145475E-2,3.0125037E-2,-6.4892724E-2,-2.7852498E-3,2.7825786E-2,-3.876211E-3,-3.601662E-2,-1.3830516E-2,4.0873524E-2,5.5425166E-4,-4.676902E-2,-7.3259346E-2,-8.045986E-2,9.552062E-2,7.208835E-2,-7.21442E-2],"categories":[],"categories_nodes":[],"categories_segments":[],"categories_sizes":[],"default_left":[0,0,0,0,0,0,0,0,0,0,0,0,0,0,0,0,0,0,0,0,0,0,0,0,0,0,0,0,0,0,0,0,0,0,0,0,0,0,0,0,0],"id":3,"left_children":[1,3,5,7,9,11,-1,13,15,17,19,21,-1,23,25,27,29,31,33,35,37,39,-1,-1,-1,-1,-1,-1,-1,-1,-1,-1,-1,-1,-1,-1,-1,-1,-1,-1,-1],"loss_changes":[3.8882021E3,3.9981611E3,3.177832E1,1.5112849E3,4.5296753E2,2.9619385E1,0E0,4.668169E2,1.1097748E3,4.8423523E2,1.1620166E2,6.2856537E1,0E0,2.2983876E2,2.3845532E2,5.921214E2,9.2095776E2,2.0709558E2,7.744856E1,1.1781641E2,6.3239765E1,4.041736E1,0E0,0E0,0E0,0E0,0E0,0E0,0E0,0E0,0E0,0E0,0E0,0E0,0E0,0E0,0E0,0E0,0E0,0E0,0E0],"parents":[2147483647,0,0,1,1,2,2,3,3,4,4,5,5,7,7,8,8,9,9,10,10,11,11,13,13,14,14,15,15,16,16,17,17,18,18,19,19,20,20,21,21],"right_children":[2,4,6,8,10,12,-1,14,16,18,20,22,-1,24,26,28,30,32,34,36,38,40,-1,-1,-1,-1,-1,-1,-1,-1,-1,-1,-1,-1,-1,-1,-1,-1,-1,-1,-1],"split_conditions":[9E0,5.9924E2,6E0,1.094E2,1.332184E4,2E0,-7.61252E-2,6E0,7E0,8.8E1,1.32E2,2E0,8.481613E-2,3.11E0,1E0,1.5731E2,1E0,2.571E1,1.50994E3,2.319424E4,1E0,7.3011E2,-7.7710785E-2,2.0013388E-2,-4.5262307E-2,6.145475E-2,3.0125037E-2,-6.4892724E-2,-2.7852498E-3,2.7825786E-2,-3.876211E-3,-3.601662E-2,-1.3830516E-2,4.0873524E-2,5.5425166E-4,-4.676902E-2,-7.3259346E-2,-8.045986E-2,9.552062E-2,7.208835E-2,-7.21442E-2],"split_indices":[8,4,7,4,4,7,0,7,7,7,7,2,0,6,10,4,10,6,4,4,10,4,0,0,0,0,0,0,0,0,0,0,0,0,0,0,0,0,0,0,0],"split_type":[0,0,0,0,0,0,0,0,0,0,0,0,0,0,0,0,0,0,0,0,0,0,0,0,0,0,0,0,0,0,0,0,0,0,0,0,0,0,0,0,0],"sum_hessian":[2.4610557E4,2.3207291E4,1.4032656E3,1.50864E4,8.12089E3,1.4007803E3,2.4852831E0,3.6173276E3,1.1469073E4,5.9358833E3,2.1850068E3,2.7466364E2,1.1261167E3,1.0162221E3,2.6011055E3,1.5589786E3,9.910095E3,5.4577573E3,4.7812573E2,2.1597427E3,2.5264317E1,2.680095E2,6.6541533E0,8.5719714E2,1.5902498E2,1.6269033E3,9.742021E2,8.771697E2,6.8180896E2,3.5933586E3,6.316736E3,4.0324614E3,1.425296E3,2.5637305E2,2.2175267E2,1.581858E3,5.778845E2,5.97491E0,1.9289408E1,2.638208E2,4.188686E0],"tree_param":{"num_deleted":"0","num_feature":"13","num_nodes":"41","size_leaf_vector":"1"}},{"base_weights":[3.3025604E-5,-9.30724E-2,1.5550609E0,1.7174765E-1,-6.8784904E-1,1.561559E0,-7.32383E-2,7.031222E-1,-2.7610033E-3,-5.484273E-1,-1.0056965E0,1.2612078E0,8.169428E-2,9.815069E-2,9.358456E-1,-7.868703E-1,1.2112007E-1,-6.520968E-1,4.255054E-1,-1.0297052E0,9.95898E-1,1.3350937E0,-7.504531E-2,1.37490025E-2,-4.5000684E-2,5.725112E-2,2.8935893E-2,-6.3372605E-2,-1.7967796E-2,2.1289073E-2,-5.2225455E-3,-4.058049E-2,-1.1842895E-2,4.0850397E-2,9.0840226E-4,-4.4611465E-2,-7.0299774E-2,-7.7474974E-2,9.0727866E-2,6.918027E-2,-6.979961E-2],"categories":[],"categories_nodes":[],"categories_segments":[],"categories_sizes":[],"default_left":[0,0,0,0,0,0,0,0,0,0,0,0,0,0,0,0,0,0,0,0,0,0,0,0,0,0,0,0,0,0,0,0,0,0,0,0,0,0,0,0,0],"id":4,"left_children":[1,3,5,7,9,11,-1,13,15,17,19,21,-1,23,25,27,29,31,33,35,37,39,-1,-1,-1,-1,-1,-1,-1,-1,-1,-1,-1,-1,-1,-1,-1,-1,-1,-1,-1],"loss_changes":[3.5537058E3,3.6478162E3,2.9496338E1,1.485981E3,3.156267E2,2.8006836E1,0E0,5.5767737E2,1.1719678E3,5.0123608E2,1.055083E2,5.7718353E1,0E0,1.9470769E2,2.130586E2,3.377461E2,7.160739E2,2.9685437E2,7.6202446E1,1.0991138E2,5.757077E1,3.722931E1,0E0,0E0,0E0,0E0,0E0,0E0,0E0,0E0,0E0,0E0,0E0,0E0,0E0,0E0,0E0,0E0,0E0,0E0,0E0],"parents":[2147483647,0,0,1,1,2,2,3,3,4,4,5,5,7,7,8,8,9,9,10,10,11,11,13,13,14,14,15,15,16,16,17,17,18,18,19,19,20,20,21,21],"right_children":[2,4,6,8,10,12,-1,14,16,18,20,22,-1,24,26,28,30,32,34,36,38,40,-1,-1,-1,-1,-1,-1,-1,-1,-1,-1,-1,-1,-1,-1,-1,-1,-1,-1,-1],"split_conditions":[9E0,6.9125E2,6E0,1.1133E2,1.332184E4,2E0,-7.32383E-2,6E0,7E0,8.8E1,1.32E2,2E0,8.169428E-2,3.11E0,1E0,1.5731E2,2E0,3.095E1,2E0,2.319424E4,1E0,7.3011E2,-7.504531E-2,1.37490025E-2,-4.5000684E-2,5.725112E-2,2.8935893E-2,-6.3372605E-2,-1.7967796E-2,2.1289073E-2,-5.2225455E-3,-4.058049E-2,-1.1842895E-2,4.0850397E-2,9.0840226E-4,-4.4611465E-2,-7.0299774E-2,-7.7474974E-2,9.0727866E-2,6.918027E-2,-6.979961E-2],"split_indices":[8,4,7,4,4,7,0,7,7,7,7,2,0,6,10,4,8,6,8,4,10,4,0,0,0,0,0,0,0,0,0,0,0,0,0,0,0,0,0,0,0],"split_type":[0,0,0,0,0,0,0,0,0,0,0,0,0,0,0,0,0,0,0,0,0,0,0,0,0,0,0,0,0,0,0,0,0,0,0,0,0,0,0,0,0],"sum_hessian":[2.4543297E4,2.3157697E4,1.3855991E3,1.6023887E4,7.13381E3,1.3831058E3,2.493265E0,3.9606812E3,1.2063205E4,4.9606006E3,2.1732095E3,2.720017E2,1.1111041E3,1.1007279E3,2.8599534E3,1.6451055E3,1.04181E4,4.48367E3,4.769305E2,2.1479312E3,2.527832E1,2.654185E2,6.583244E0,9.3569055E2,1.6503732E2,1.8021766E3,1.0577767E3,7.735595E2,8.715459E2,4.431681E3,5.986419E3,3.2386116E3,1.2450586E3,2.4267935E2,2.3425116E2,1.5756471E3,5.722841E2,5.93435E0,1.934397E1,2.6127094E2,4.147526E0],"tree_param":{"num_deleted":"0","num_feature":"13","num_nodes":"41","size_leaf_vector":"1"}},{"base_weights":[3.993315E-5,-8.864829E-2,1.5006193E0,1.6344856E-1,-6.56022E-1,1.5069851E0,-7.060496E-2,6.71045E-1,-2.6482686E-3,-5.034918E-1,-9.262974E-1,1.2123213E0,7.891347E-2,9.330504E-2,8.94314E-1,-7.513354E-1,1.15086704E-1,-6.0989386E-1,4.04944E-1,-8.726495E-2,-8.4908503E-1,1.2835916E0,-7.263156E-2,1.2284878E-2,-4.7945343E-2,5.4832757E-2,2.7545527E-2,-6.0813576E-2,-1.7078495E-2,2.193249E-2,-3.9415853E-3,-3.8689815E-2,9.503225E-4,3.601145E-2,-3.3952964E-3,-3.4343854E-2,-6.40642E-2,6.652468E-2,-6.7652434E-2],"categories":[],"categories_nodes":[],"categories_segments":[],"categories_sizes":[],"default_left":[0,0,0,0,0,0,0,0,0,0,0,0,0,0,0,0,0,0,0,0,0,0,0,0,0,0,0,0,0,0,0,0,0,0,0,0,0,0,0],"id":5,"left_children":[1,3,5,7,9,11,-1,13,15,17,19,21,-1,23,25,27,29,31,33,-1,35,37,-1,-1,-1,-1,-1,-1,-1,-1,-1,-1,-1,-1,-1,-1,-1,-1,-1],"loss_changes":[3.2565957E3,3.3048489E3,2.7447754E1,1.3487734E3,2.92562E2,2.671753E1,0E0,5.0868335E2,1.0626539E3,4.3965356E2,1.6059937E2,5.3113495E1,0E0,1.7669981E2,1.970581E2,3.116823E2,6.536702E2,4.1951233E2,7.119475E1,0E0,1.634624E2,3.436447E1,0E0,0E0,0E0,0E0,0E0,0E0,0E0,0E0,0E0,0E0,0E0,0E0,0E0,0E0,0E0,0E0,0E0],"parents":[2147483647,0,0,1,1,2,2,3,3,4,4,5,5,7,7,8,8,9,9,10,10,11,11,13,13,14,14,15,15,16,16,17,17,18,18,20,20,21,21],"right_children":[2,4,6,8,10,12,-1,14,16,18,20,22,-1,24,26,28,30,32,34,-1,36,38,-1,-1,-1,-1,-1,-1,-1,-1,-1,-1,-1,-1,-1,-1,-1,-1,-1],"split_conditions":[9E0,6.9125E2,6E0,1.1133E2,1.177582E4,2E0,-7.060496E-2,6E0,7E0,8.8E1,1.1E1,2E0,7.891347E-2,3.4166667E0,1E0,1.5731E2,1E0,3.095E1,1.56308E3,-8.726495E-2,2.26515E4,7.3011E2,-7.263156E-2,1.2284878E-2,-4.7945343E-2,5.4832757E-2,2.7545527E-2,-6.0813576E-2,-1.7078495E-2,2.193249E-2,-3.9415853E-3,-3.8689815E-2,9.503225E-4,3.601145E-2,-3.3952964E-3,-3.4343854E-2,-6.40642E-2,6.652468E-2,-6.7652434E-2],"split_indices":[8,4,7,4,4,7,0,7,7,7,7,2,0,6,10,4,10,6,4,0,4,4,0,0,0,0,0,0,0,0,0,0,0,0,0,0,0,0,0],"split_type":[0,0,0,0,0,0,0,0,0,0,0,0,0,0,0,0,0,0,0,0,0,0,0,0,0,0,0,0,0,0,0,0,0,0,0,0,0,0,0],"sum_hessian":[2.446828E4,2.3103729E4,1.3645507E3,1.5996733E4,7.106995E3,1.3620565E3,2.4941874E0,3.9431917E3,1.2053542E4,4.544925E3,2.56207E3,2.6882755E2,1.093229E3,1.0994994E3,2.8436924E3,1.637181E3,1.041636E4,4.0687002E3,4.7622473E2,2.188713E2,2.3431987E3,2.6233023E2,6.497303E0,9.610731E2,1.3842635E2,1.7879801E3,1.0557122E3,7.66037E2,8.7114404E2,3.9029014E3,6.5134595E3,3.2273628E3,8.413374E2,2.8540222E2,1.908225E2,1.7056448E3,6.37554E2,2.5823206E2,4.098175E0],"tree_param":{"num_deleted":"0","num_feature":"13","num_nodes":"39","size_leaf_vector":"1"}},{"base_weights":[4.3582724E-5,-8.4483474E-2,1.4515303E0,1.802082E-1,-5.7823926E-1,1.4577808E0,-6.819251E-2,6.737989E-1,2.61121E-2,-4.3546134E-1,-8.8629174E-1,1.1673924E0,7.642036E-2,1.771325E-1,8.7042814E-1,-6.52381E-1,1.3148914E-1,-5.130872E-1,3.8284236E-1,-8.413053E-2,-8.118135E-1,1.236253E0,-7.043437E-2,1.7749516E-2,-3.9464176E-2,5.4204214E-2,2.5971567E-2,-5.7884045E-2,-8.9731225E-4,2.4818124E-2,-3.7649714E-3,-3.0422667E-2,3.47911E-3,3.7646372E-2,-7.056939E-5,-3.2755762E-2,-6.164786E-2,6.408394E-2,-6.567734E-2],"categories":[],"categories_nodes":[],"categories_segments":[],"categories_sizes":[],"default_left":[0,0,0,0,0,0,0,0,0,0,0,0,0,0,0,0,0,0,0,0,0,0,0,0,0,0,0,0,0,0,0,0,0,0,0,0,0,0,0],"id":6,"left_children":[1,3,5,7,9,11,-1,13,15,17,19,21,-1,23,25,27,29,31,33,-1,35,37,-1,-1,-1,-1,-1,-1,-1,-1,-1,-1,-1,-1,-1,-1,-1,-1,-1],"loss_changes":[2.9913494E3,3.011229E3,2.5598877E1,1.1408723E3,3.5327686E2,2.5682129E1,0E0,3.4835938E2,8.174543E2,3.4933032E2,1.4960828E2,4.896817E1,0E0,1.7446564E2,1.911394E2,4.927127E2,7.467147E2,2.7901685E2,6.7803474E1,0E0,1.5294128E2,3.17789E1,0E0,0E0,0E0,0E0,0E0,0E0,0E0,0E0,0E0,0E0,0E0,0E0,0E0,0E0,0E0,0E0,0E0],"parents":[2147483647,0,0,1,1,2,2,3,3,4,4,5,5,7,7,8,8,9,9,10,10,11,11,13,13,14,14,15,15,16,16,17,17,18,18,20,20,21,21],"right_children":[2,4,6,8,10,12,-1,14,16,18,20,22,-1,24,26,28,30,32,34,-1,36,38,-1,-1,-1,-1,-1,-1,-1,-1,-1,-1,-1,-1,-1,-1,-1,-1,-1],"split_conditions":[9E0,5.9924E2,6E0,1.094E2,1.177582E4,2E0,-6.819251E-2,6E0,7E0,8.8E1,1.1E1,2E0,7.642036E-2,3.11E0,1E0,1.5731E2,1E0,1.4277E2,2E0,-8.413053E-2,2.26515E4,7.3011E2,-7.043437E-2,1.7749516E-2,-3.9464176E-2,5.4204214E-2,2.5971567E-2,-5.7884045E-2,-8.9731225E-4,2.4818124E-2,-3.7649714E-3,-3.0422667E-2,3.47911E-3,3.7646372E-2,-7.056939E-5,-3.2755762E-2,-6.164786E-2,6.408394E-2,-6.567734E-2],"split_indices":[8,4,7,4,4,7,0,7,7,7,7,2,0,6,10,4,10,6,8,0,4,4,0,0,0,0,0,0,0,0,0,0,0,0,0,0,0,0,0],"split_type":[0,0,0,0,0,0,0,0,0,0,0,0,0,0,0,0,0,0,0,0,0,0,0,0,0,0,0,0,0,0,0,0,0,0,0,0,0,0,0],"sum_hessian":[2.4379383E4,2.3038672E4,1.3407109E3,1.4998785E4,8.039886E3,1.338222E3,2.4887927E0,3.5676729E3,1.1431112E4,5.495305E3,2.544581E3,2.6522964E2,1.0729924E3,1.0123857E3,2.555287E3,1.5360067E3,9.895105E3,5.019517E3,4.757882E2,2.1578831E2,2.3287927E3,2.58831E2,6.398661E0,8.5556195E2,1.5682373E2,1.587107E3,9.681801E2,8.54561E2,6.814457E2,3.5788728E3,6.316233E3,4.313481E3,7.06036E2,2.4187373E2,2.3391447E2,1.699137E3,6.2965564E2,2.5478915E2,4.0418363E0],"tree_param":{"num_deleted":"0","num_feature":"13","num_nodes":"39","size_leaf_vector":"1"}},{"base_weights":[5.3552405E-5,-8.0541536E-2,1.4069947E0,1.4938605E-1,-6.0028774E-1,1.4131442E0,-6.597345E-2,6.6848576E-1,1.4051927E-2,-4.7629926E-1,-8.865791E-1,1.1258545E0,7.4171975E-2,1.6210729E-1,8.6292183E-1,-6.532965E-1,1.2686057E-1,-5.6644636E-1,3.672456E-1,-9.1022146E-1,1.0531186E0,1.1924821E0,-6.842462E-2,1.6776359E-2,-3.5846677E-2,5.9854265E-2,3.2829348E-2,-7.342289E-2,-2.6163919E-2,2.0624107E-2,-4.442895E-3,-3.552401E-2,-9.707209E-3,3.5596028E-2,-1.4114109E-3,-4.7241483E-2,2.2806125E-2,-7.077193E-2,9.104803E-2,6.1827302E-2,-6.385296E-2],"categories":[],"categories_nodes":[],"categories_segments":[],"categories_sizes":[],"default_left":[0,0,0,0,0,0,0,0,0,0,0,0,0,0,0,0,0,0,0,0,0,0,0,0,0,0,0,0,0,0,0,0,0,0,0,0,0,0,0,0,0],"id":7,"left_children":[1,3,5,7,9,11,-1,13,15,17,19,21,-1,23,25,27,29,31,33,35,37,39,-1,-1,-1,-1,-1,-1,-1,-1,-1,-1,-1,-1,-1,-1,-1,-1,-1,-1,-1],"loss_changes":[2.7533806E3,2.7446482E3,2.3922363E1,1.1186272E3,2.4961865E2,2.4848389E1,0E0,3.2406677E2,9.510075E2,3.7414636E2,9.852734E1,4.522177E1,0E0,1.3969629E2,1.6324683E2,1.9282812E2,6.6582117E2,2.381178E2,6.48194E1,9.985095E1,5.2018135E1,2.9436035E1,0E0,0E0,0E0,0E0,0E0,0E0,0E0,0E0,0E0,0E0,0E0,0E0,0E0,0E0,0E0,0E0,0E0,0E0,0E0],"parents":[2147483647,0,0,1,1,2,2,3,3,4,4,5,5,7,7,8,8,9,9,10,10,11,11,13,13,14,14,15,15,16,16,17,17,18,18,19,19,20,20,21,21],"right_children":[2,4,6,8,10,12,-1,14,16,18,20,22,-1,24,26,28,30,32,34,36,38,40,-1,-1,-1,-1,-1,-1,-1,-1,-1,-1,-1,-1,-1,-1,-1,-1,-1,-1,-1],"split_conditions":[9E0,6.9125E2,6E0,1.0818E2,1.332184E4,2E0,-6.597345E-2,6E0,7E0,8.8E1,1.32E2,2E0,7.4171975E-2,3.11E0,1.915E0,2E0,2E0,3.095E1,1.50994E3,2E0,1E0,7.3011E2,-6.842462E-2,1.6776359E-2,-3.5846677E-2,5.9854265E-2,3.2829348E-2,-7.342289E-2,-2.6163919E-2,2.0624107E-2,-4.442895E-3,-3.552401E-2,-9.707209E-3,3.5596028E-2,-1.4114109E-3,-4.7241483E-2,2.2806125E-2,-7.077193E-2,9.104803E-2,6.1827302E-2,-6.385296E-2],"split_indices":[8,4,7,4,4,7,0,7,7,7,7,2,0,6,6,7,8,6,4,0,10,4,0,0,0,0,0,0,0,0,0,0,0,0,0,0,0,0,0,0,0],"split_type":[0,0,0,0,0,0,0,0,0,0,0,0,0,0,0,0,0,0,0,0,0,0,0,0,0,0,0,0,0,0,0,0,0,0,0,0,0,0,0,0,0],"sum_hessian":[2.4279848E4,2.2965252E4,1.3145966E3,1.5922223E4,7.0430293E3,1.3121188E3,2.4777758E0,3.291833E3,1.263039E4,4.916451E3,2.126578E3,2.6128568E2,1.0508331E3,9.138049E2,2.378028E3,1.8256282E3,1.0804762E4,4.4420693E3,4.7438214E2,2.1014941E3,2.5083706E1,2.5499628E2,6.289399E0,7.6374854E2,1.5005635E2,9.059778E2,1.4720504E3,2.4971584E2,1.5759122E3,4.6487207E3,6.1560405E3,3.2022827E3,1.2397866E3,2.5304276E2,2.213394E2,2.049881E3,5.161305E1,5.7510605E0,1.9332645E1,2.510167E2,3.9795926E0],"tree_param":{"num_deleted":"0","num_feature":"13","num_nodes":"41","size_leaf_vector":"1"}},{"base_weights":[7.352877E-5,-7.675895E-2,1.3663595E0,1.4222664E-1,-5.7328856E-1,1.0872395E0,1.4349259E0,5.7592404E-1,-7.7604554E-3,-4.5416015E-1,-8.4975046E-1,1.1517864E0,-6.657802E-2,7.2133325E-2,-6.392443E-2,-1.4897455E-1,7.147822E-1,-5.944934E-1,1.2618406E-1,-5.4019594E-1,3.4981254E-1,-8.724586E-1,1.0055373E0,1.1945863E0,-6.216122E-2,6.921229E-3,-8.6959116E-2,4.4889946E-2,2.3889614E-2,-4.606651E-2,-1.3910386E-2,2.4144245E-2,-3.2514844E-3,-3.3919204E-2,-9.227692E-3,3.5338346E-2,-9.0327626E-4,-3.7267547E-2,-6.1507393E-2,-6.8686575E-2,8.68273E-2,4.4758093E-2,6.853877E-2],"categories":[],"categories_nodes":[],"categories_segments":[],"categories_sizes":[],"default_left":[0,0,0,0,0,0,0,0,0,0,0,0,0,0,0,0,0,0,0,0,0,0,0,0,0,0,0,0,0,0,0,0,0,0,0,0,0,0,0,0,0,0,0],"id":8,"left_children":[1,3,5,7,9,11,13,15,17,19,21,23,-1,-1,-1,25,27,29,31,33,35,37,39,41,-1,-1,-1,-1,-1,-1,-1,-1,-1,-1,-1,-1,-1,-1,-1,-1,-1,-1,-1],"loss_changes":[2.5388943E3,2.4898477E3,2.3083252E1,1.0336859E3,2.3042578E2,4.1824127E1,2.3490479E1,4.111349E2,9.280929E2,3.3911688E2,8.97428E1,2.7305664E1,0E0,0E0,0E0,3.006336E2,1.4821643E2,2.2663617E2,6.5580054E2,2.1742346E2,6.2292213E1,9.3847534E1,4.7553764E1,1.1855194E1,0E0,0E0,0E0,0E0,0E0,0E0,0E0,0E0,0E0,0E0,0E0,0E0,0E0,0E0,0E0,0E0,0E0,0E0,0E0],"parents":[2147483647,0,0,1,1,2,2,3,3,4,4,5,5,6,6,7,7,8,8,9,9,10,10,11,11,15,15,16,16,17,17,18,18,19,19,20,20,21,21,22,22,23,23],"right_children":[2,4,6,8,10,12,14,16,18,20,22,24,-1,-1,-1,26,28,30,32,34,36,38,40,42,-1,-1,-1,-1,-1,-1,-1,-1,-1,-1,-1,-1,-1,-1,-1,-1,-1,-1,-1],"split_conditions":[9E0,6.9125E2,2E0,1.1266E2,1.332184E4,2E0,6E0,4E0,9E0,8.8E1,1.32E2,7.3011E2,-6.657802E-2,7.2133325E-2,-6.392443E-2,2.59E0,2E0,1.7103E2,1E0,3.095E1,2E0,2.319424E4,1E0,1E0,-6.216122E-2,6.921229E-3,-8.6959116E-2,4.4889946E-2,2.3889614E-2,-4.606651E-2,-1.3910386E-2,2.4144245E-2,-3.2514844E-3,-3.3919204E-2,-9.227692E-3,3.5338346E-2,-9.0327626E-4,-3.7267547E-2,-6.1507393E-2,-6.8686575E-2,8.68273E-2,4.4758093E-2,6.853877E-2],"split_indices":[8,4,7,4,4,2,7,7,7,7,7,4,0,0,0,6,8,4,10,6,8,4,10,10,0,0,0,0,0,0,0,0,0,0,0,0,0,0,0,0,0,0,0],"split_type":[0,0,0,0,0,0,0,0,0,0,0,0,0,0,0,0,0,0,0,0,0,0,0,0,0,0,0,0,0,0,0,0,0,0,0,0,0,0,0,0,0,0,0],"sum_hessian":[2.4183676E4,2.2897016E4,1.2866595E3,1.588981E4,7.0072056E3,2.570637E2,1.029596E3,4.0824119E3,1.1807397E4,4.8988965E3,2.108309E3,2.5089232E2,6.171369E0,1.0271342E3,2.4617822E0,6.562797E2,3.426132E3,2.1938743E3,9.613523E3,4.4256235E3,4.7327277E2,2.0833394E3,2.4969696E1,2.469799E2,3.9124174E0,5.565984E2,9.968138E1,1.9316311E3,1.494501E3,1.0779999E3,1.1158743E3,3.3544395E3,6.2590845E3,3.1865515E3,1.2390723E3,2.397351E2,2.3353766E2,1.5393895E3,5.4395E2,5.661985E0,1.9307713E1,9.374523E1,1.5323466E2],"tree_param":{"num_deleted":"0","num_feature":"13","num_nodes":"43","size_leaf_vector":"1"}},{"base_weights":[8.552645E-5,-7.318708E-2,1.3291557E0,1.5714021E-1,-5.0568044E-1,1.0514839E0,1.3978548E0,6.1412024E-1,2.9452674E-2,-3.777707E-1,-7.855702E-1,1.1140956E0,-6.487414E-2,7.02756E-2,-6.202556E-2,1.4566334E-1,7.9612124E-1,-6.751275E-1,9.881038E-2,-4.4259256E-1,3.6323896E-1,-7.989541E-2,-7.101737E-1,1.155725E0,-6.058666E-2,1.4456068E-2,-3.7931312E-2,5.6171477E-2,2.9810807E-2,-5.5752076E-2,-9.343865E-3,2.032576E-2,-4.7981865E-3,-2.645857E-2,4.2522843E-3,3.670707E-2,-3.062191E-3,-2.8101971E-2,-5.5942714E-2,4.3072205E-2,6.651962E-2],"categories":[],"categories_nodes":[],"categories_segments":[],"categories_sizes":[],"default_left":[0,0,0,0,0,0,0,0,0,0,0,0,0,0,0,0,0,0,0,0,0,0,0,0,0,0,0,0,0,0,0,0,0,0,0,0,0,0,0,0,0],"id":9,"left_children":[1,3,5,7,9,11,13,15,17,19,21,23,-1,-1,-1,25,27,29,31,33,35,-1,37,39,-1,-1,-1,-1,-1,-1,-1,-1,-1,-1,-1,-1,-1,-1,-1,-1,-1],"loss_changes":[2.3451836E3,2.2736365E3,2.253247E1,8.690071E2,2.836482E2,3.8743347E1,2.2060425E1,2.7719238E2,5.6897107E2,2.617276E2,1.5117468E2,2.5369446E1,0E0,0E0,0E0,1.18439095E2,1.5258325E2,2.2390408E2,6.3528174E2,2.2881769E2,6.909733E1,0E0,1.372428E2,1.1381165E1,0E0,0E0,0E0,0E0,0E0,0E0,0E0,0E0,0E0,0E0,0E0,0E0,0E0,0E0,0E0,0E0,0E0],"parents":[2147483647,0,0,1,1,2,2,3,3,4,4,5,5,6,6,7,7,8,8,9,9,10,10,11,11,15,15,16,16,17,17,18,18,19,19,20,20,22,22,23,23],"right_children":[2,4,6,8,10,12,14,16,18,20,22,24,-1,-1,-1,26,28,30,32,34,36,-1,38,40,-1,-1,-1,-1,-1,-1,-1,-1,-1,-1,-1,-1,-1,-1,-1,-1,-1],"split_conditions":[9E0,5.9924E2,2E0,1.0818E2,1.177582E4,2E0,6E0,6E0,5E0,8.9E1,1.1E1,7.3011E2,-6.487414E-2,7.02756E-2,-6.202556E-2,3.4166667E0,1.915E0,1.3951E2,1E0,1.4277E2,1.50994E3,-7.989541E-2,2.26515E4,1E0,-6.058666E-2,1.4456068E-2,-3.7931312E-2,5.6171477E-2,2.9810807E-2,-5.5752076E-2,-9.343865E-3,2.032576E-2,-4.7981865E-3,-2.645857E-2,4.2522843E-3,3.670707E-2,-3.062191E-3,-2.8101971E-2,-5.5942714E-2,4.3072205E-2,6.651962E-2],"split_indices":[8,4,7,4,4,2,7,7,7,7,7,4,0,0,0,6,6,4,10,6,4,0,4,10,0,0,0,0,0,0,0,0,0,0,0,0,0,0,0,0,0],"split_type":[0,0,0,0,0,0,0,0,0,0,0,0,0,0,0,0,0,0,0,0,0,0,0,0,0,0,0,0,0,0,0,0,0,0,0,0,0,0,0,0,0],"sum_hessian":[2.4079707E4,2.2822436E4,1.2572725E3,1.4892154E4,7.9302812E3,2.5260107E2,1.00467145E3,3.251516E3,1.1640638E4,5.4444937E3,2.4857874E3,2.4655486E2,6.0462174E0,1.00223004E3,2.4414096E0,9.1029236E2,2.3412236E3,1.042412E3,1.0598226E4,5.006904E3,4.3759015E2,2.0940627E2,2.2763809E3,2.4271367E2,3.8411827E0,7.862419E2,1.2405047E2,8.859773E2,1.4552463E3,5.476737E2,4.947383E2,4.107731E3,6.4904946E3,4.3011377E3,7.0576605E2,2.3314468E2,2.0444547E2,1.6725192E3,6.038618E2,9.2612045E1,1.5010162E2],"tree_param":{"num_deleted":"0","num_feature":"13","num_nodes":"41","size_leaf_vector":"1"}},{"base_weights":[1.0121104E-4,-6.979184E-2,1.2948722E0,1.300083E-1,-5.2565724E-1,1.0179616E0,1.3639102E0,5.293277E-1,-6.845867E-3,-4.7341415E-1,-1.0813535E0,1.0787562E0,-6.3295655E-2,6.857484E-2,-6.0259815E-2,-1.3823746E-1,6.5818274E-1,-5.6009793E-1,1.1878999E-1,-5.5579454E-1,3.1157255E-1,-1.3134977E0,-6.869546E-1,1.1608086E0,-1.0031257E-1,6.5779127E-3,-8.30336E-2,4.1702203E-2,2.1619365E-2,-4.3597136E-2,-1.3072232E-2,1.9796377E-2,-4.5351847E-3,-5.998931E-2,-2.5519593E-2,1.0504375E-2,6.4516656E-2,-7.5634986E-2,-4.4757765E-2,-2.2137687E-2,-7.4403636E-2,4.1817002E-2,6.5158956E-2,-7.871053E-2,4.1414343E-2],"categories":[],"categories_nodes":[],"categories_segments":[],"categories_sizes":[],"default_left":[0,0,0,0,0,0,0,0,0,0,0,0,0,0,0,0,0,0,0,0,0,0,0,0,0,0,0,0,0,0,0,0,0,0,0,0,0,0,0,0,0,0,0,0,0],"id":10,"left_children":[1,3,5,7,9,11,13,15,17,19,21,23,-1,-1,-1,25,27,29,31,33,35,37,39,41,43,-1,-1,-1,-1,-1,-1,-1,-1,-1,-1,-1,-1,-1,-1,-1,-1,-1,-1,-1,-1],"loss_changes":[2.1694204E3,2.0717188E3,2.208374E1,8.642523E2,2.0071033E2,3.593335E1,2.0750732E1,3.4731482E2,8.18811E2,4.0999512E2,5.3561035E1,2.3630157E1,0E0,0E0,0E0,2.6881253E2,1.3400037E2,2.0280554E2,5.574018E2,1.6709717E2,5.957982E1,2.9759277E1,4.28695E1,9.410828E0,2.4206882E1,0E0,0E0,0E0,0E0,0E0,0E0,0E0,0E0,0E0,0E0,0E0,0E0,0E0,0E0,0E0,0E0,0E0,0E0,0E0,0E0],"parents":[2147483647,0,0,1,1,2,2,3,3,4,4,5,5,6,6,7,7,8,8,9,9,10,10,11,11,15,15,16,16,17,17,18,18,19,19,20,20,21,21,22,22,23,23,24,24],"right_children":[2,4,6,8,10,12,14,16,18,20,22,24,-1,-1,-1,26,28,30,32,34,36,38,40,42,44,-1,-1,-1,-1,-1,-1,-1,-1,-1,-1,-1,-1,-1,-1,-1,-1,-1,-1,-1,-1],"split_conditions":[9E0,6.9125E2,2E0,1.1266E2,2.26515E4,2E0,6E0,4E0,9E0,8.8E1,9.7E1,5.8541E2,-6.3295655E-2,6.857484E-2,-6.0259815E-2,2.59E0,2E0,1.7103E2,2E0,7.6201E2,1.16E2,8.888889E-1,2.21465E2,2.16E0,1E0,6.5779127E-3,-8.30336E-2,4.1702203E-2,2.1619365E-2,-4.3597136E-2,-1.3072232E-2,1.9796377E-2,-4.5351847E-3,-5.998931E-2,-2.5519593E-2,1.0504375E-2,6.4516656E-2,-7.5634986E-2,-4.4757765E-2,-2.2137687E-2,-7.4403636E-2,4.1817002E-2,6.5158956E-2,-7.871053E-2,4.1414343E-2],"split_indices":[8,4,7,4,4,2,7,7,7,7,7,4,0,0,0,6,8,4,8,4,7,5,6,6,10,0,0,0,0,0,0,0,0,0,0,0,0,0,0,0,0,0,0,0,0],"split_type":[0,0,0,0,0,0,0,0,0,0,0,0,0,0,0,0,0,0,0,0,0,0,0,0,0,0,0,0,0,0,0,0,0,0,0,0,0,0,0,0,0,0,0,0,0],"sum_hessian":[2.3970691E4,2.2743898E4,1.2267927E3,1.5813677E4,6.9302227E3,2.4796289E2,9.7882983E2,4.035587E3,1.177809E4,6.3363687E3,5.9385394E2,2.420475E2,5.9154043E0,9.764126E2,2.4172077E0,6.529171E2,3.3826697E3,2.179028E3,9.599062E3,5.7348203E3,6.015485E2,3.723547E2,2.214992E2,2.2631363E2,1.5733864E1,5.5540546E2,9.751168E1,1.9000884E3,1.4825814E3,1.0650332E3,1.113995E3,4.1319917E3,5.46707E3,3.7601437E2,5.3588057E3,5.461358E2,5.5412716E1,2.5047174E2,1.2188296E2,1.709439E2,5.0555313E1,7.111471E1,1.5519893E2,5.812637E0,9.921227E0],"tree_param":{"num_deleted":"0","num_feature":"13","num_nodes":"45","size_leaf_vector":"1"}},{"base_weights":[1.0599772E-4,-6.6555694E-2,1.2632319E0,3.5630402E-1,-2.636004E-1,9.868076E-1,1.3326917E0,-3.088131E-1,5.462796E-1,-7.227958E-2,-5.061841E-1,1.0459166E0,-6.182781E-2,6.701096E-2,-5.8612525E-2,6.988906E-2,-1.279235E0,7.4699265E-1,3.3471072E-1,-2.322699E-1,2.2098275E-1,-1.4079291E0,-4.6475723E-1,1.1262368E0,-9.862552E-2,1.0191975E-2,-3.63878E-2,-6.7846924E-2,4.159489E-2,3.884259E-2,-2.5679251E-2,1.8891623E-2,-2.4533717E-2,-4.4659723E-2,-7.510917E-3,-1.4105056E-2,2.4594497E-2,-8.25556E-2,-4.5771245E-2,-1.5297261E-2,-3.6468707E-2,4.028098E-2,6.3422404E-2,3.927263E-2,-7.81886E-2],"categories":[],"categories_nodes":[],"categories_segments":[],"categories_sizes":[],"default_left":[0,0,0,0,0,0,0,0,0,0,0,0,0,0,0,0,0,0,0,0,0,0,0,0,0,0,0,0,0,0,0,0,0,0,0,0,0,0,0,0,0,0,0,0,0],"id":11,"left_children":[1,3,5,7,9,11,13,15,17,19,21,23,-1,-1,-1,25,27,29,31,33,35,37,39,41,43,-1,-1,-1,-1,-1,-1,-1,-1,-1,-1,-1,-1,-1,-1,-1,-1,-1,-1,-1,-1],"loss_changes":[2.0096575E3,1.8890616E3,2.1657104E1,9.107632E2,7.1771643E2,3.3375916E1,1.954712E1,5.887234E2,2.3780066E2,4.057721E2,2.5407239E2,2.2021698E1,0E0,0E0,0E0,1.2334721E2,7.489191E1,1.0864783E2,9.738504E1,3.0330365E2,4.162068E2,3.4300476E1,2.738092E2,9.136414E0,2.266379E1,0E0,0E0,0E0,0E0,0E0,0E0,0E0,0E0,0E0,0E0,0E0,0E0,0E0,0E0,0E0,0E0,0E0,0E0,0E0,0E0],"parents":[2147483647,0,0,1,1,2,2,3,3,4,4,5,5,6,6,7,7,8,8,9,9,10,10,11,11,15,15,16,16,17,17,18,18,19,19,20,20,21,21,22,22,23,23,24,24],"right_children":[2,4,6,8,10,12,14,16,18,20,22,24,-1,-1,-1,26,28,30,32,34,36,38,40,42,44,-1,-1,-1,-1,-1,-1,-1,-1,-1,-1,-1,-1,-1,-1,-1,-1,-1,-1,-1,-1],"split_conditions":[9E0,1.3768E2,2E0,6E0,7.0142E2,2E0,6E0,1.1266E2,2E0,4.5236E2,7.6201E2,5.8541E2,-6.182781E-2,6.701096E-2,-5.8612525E-2,3.11E0,5E0,5.46E0,4.32E0,1.5E1,9E0,1.2105E1,1.177582E4,2.16E0,4.4827586E-1,1.0191975E-2,-3.63878E-2,-6.7846924E-2,4.159489E-2,3.884259E-2,-2.5679251E-2,1.8891623E-2,-2.4533717E-2,-4.4659723E-2,-7.510917E-3,-1.4105056E-2,2.4594497E-2,-8.25556E-2,-4.5771245E-2,-1.5297261E-2,-3.6468707E-2,4.028098E-2,6.3422404E-2,3.927263E-2,-7.81886E-2],"split_indices":[8,4,7,7,4,2,7,4,8,4,4,4,0,0,0,6,8,6,6,7,7,6,4,6,5,0,0,0,0,0,0,0,0,0,0,0,0,0,0,0,0,0,0,0,0],"split_type":[0,0,0,0,0,0,0,0,0,0,0,0,0,0,0,0,0,0,0,0,0,0,0,0,0,0,0,0,0,0,0,0,0,0,0,0,0,0,0,0,0,0,0,0,0],"sum_hessian":[2.386507E4,2.2669623E4,1.195446E3,7.2055786E3,1.5464045E4,2.4312083E2,9.523252E2,1.6007212E3,5.6048574E3,8.646234E3,6.8178105E3,2.3734062E2,5.7802196E0,9.4993555E2,2.3896809E0,1.1520627E3,4.4865857E2,2.8749211E3,2.729936E3,5.5943984E3,3.0518362E3,2.9800946E2,6.519801E3,2.2179198E2,1.5548644E1,9.8704956E2,1.6501314E2,4.3307578E2,1.5582776E1,2.808774E3,6.614731E1,2.594909E3,1.3502731E2,6.167331E2,4.977665E3,1.0681688E3,1.9836674E3,1.9792696E2,1.00082504E2,4.0758198E3,2.443981E3,7.0196915E1,1.5159506E2,9.986587E0,5.5620575E0],"tree_param":{"num_deleted":"0","num_feature":"13","num_nodes":"45","size_leaf_vector":"1"}},{"base_weights":[1.1061913E-4,-6.346932E-2,1.2338004E0,1.3792482E-1,-4.4412145E-1,9.5731056E-1,1.3038608E0,3.7286595E-1,-6.518206E-2,-3.2946533E-1,-6.992843E-1,1.0148208E0,-6.045794E-2,6.556698E-2,-5.7071026E-2,-9.424055E-2,5.21296E-1,-8.098302E-2,-3.078982E-2,-3.8903597E-1,3.4690183E-1,-7.59074E-2,-6.2443334E-1,1.0537395E0,-5.687098E-2,1.4574641E-2,-2.0332579E-2,3.7990186E-2,1.02400575E-2,1.3593231E-2,-9.773354E-3,-2.4393037E-2,2.4241984E-3,3.517918E-2,-2.9573021E-3,-2.4213508E-2,-5.1150437E-2,3.8287535E-2,6.1456818E-2],"categories":[],"categories_nodes":[],"categories_segments":[],"categories_sizes":[],"default_left":[0,0,0,0,0,0,0,0,0,0,0,0,0,0,0,0,0,0,0,0,0,0,0,0,0,0,0,0,0,0,0,0,0,0,0,0,0,0,0],"id":12,"left_children":[1,3,5,7,9,11,13,15,17,19,21,23,-1,-1,-1,25,27,-1,29,31,33,-1,35,37,-1,-1,-1,-1,-1,-1,-1,-1,-1,-1,-1,-1,-1,-1,-1],"loss_changes":[1.8638236E3,1.732387E3,2.1310913E1,7.0525525E2,2.2852527E2,3.1029907E1,1.843811E1,4.7516315E2,4.2376556E2,2.1758124E2,1.4758203E2,2.0761917E1,0E0,0E0,0E0,1.9935284E2,3.9240247E2,0E0,3.8665643E2,2.145022E2,6.3386524E1,0E0,1.2363971E2,1.0673004E1,0E0,0E0,0E0,0E0,0E0,0E0,0E0,0E0,0E0,0E0,0E0,0E0,0E0,0E0,0E0],"parents":[2147483647,0,0,1,1,2,2,3,3,4,4,5,5,6,6,7,7,8,8,9,9,10,10,11,11,15,15,16,16,18,18,19,19,20,20,22,22,23,23],"right_children":[2,4,6,8,10,12,14,16,18,20,22,24,-1,-1,-1,26,28,-1,30,32,34,-1,36,38,-1,-1,-1,-1,-1,-1,-1,-1,-1,-1,-1,-1,-1,-1,-1],"split_conditions":[9E0,5.9924E2,2E0,1E0,1.177582E4,2E0,6E0,6E0,3E0,8.9E1,1.1E1,7.3011E2,-6.045794E-2,6.556698E-2,-5.7071026E-2,1.094E2,2E0,-8.098302E-2,1.3768E2,2.929E1,1.50994E3,-7.59074E-2,2.26515E4,1E0,-5.687098E-2,1.4574641E-2,-2.0332579E-2,3.7990186E-2,1.02400575E-2,1.3593231E-2,-9.773354E-3,-2.4393037E-2,2.4241984E-3,3.517918E-2,-2.9573021E-3,-2.4213508E-2,-5.1150437E-2,3.8287535E-2,6.1456818E-2],"split_indices":[8,4,7,10,4,2,7,7,7,7,7,4,0,0,0,4,8,0,4,6,4,0,4,10,0,0,0,0,0,0,0,0,0,0,0,0,0,0,0],"split_type":[0,0,0,0,0,0,0,0,0,0,0,0,0,0,0,0,0,0,0,0,0,0,0,0,0,0,0,0,0,0,0,0,0,0,0,0,0,0,0],"sum_hessian":[2.375977E4,2.2596191E4,1.163578E3,1.4778089E4,7.818103E3,2.3819955E2,9.253784E2,6.851673E3,7.926416E3,5.3958135E3,2.4222896E3,2.3255775E2,5.641802E0,9.230191E2,2.359291E0,1.6522958E3,5.199377E3,1.7057523E2,7.755841E3,4.959439E3,4.363747E2,2.0125829E2,2.2210315E3,2.2892847E2,3.6292899E0,7.39412E2,9.1288385E2,2.9641897E3,2.2351875E3,2.7327556E3,5.023085E3,4.045538E3,9.139007E2,2.3191902E2,2.0445569E2,1.644826E3,5.762053E2,8.868311E1,1.4024536E2],"tree_param":{"num_deleted":"0","num_feature":"13","num_nodes":"39","size_leaf_vector":"1"}},{"base_weights":[1.21171404E-4,-6.0537837E-2,1.2062135E0,1.3137385E-1,-4.243645E-1,9.289117E-1,1.2771288E0,5.308753E-1,2.1850968E-2,-3.267121E-1,-7.039721E-1,1.031254E0,-3.0460787E-1,6.42284E-2,-5.5624295E-2,1.2082676E-1,6.9387114E-1,2.4820773E-1,-1.4270227E-1,-7.7322704E-1,-2.4234104E-1,-7.379121E-1,6.122889E-1,1.0639553E0,-5.206254E-2,6.901368E-1,-7.444676E-2,1.7436028E-2,-1.675204E-2,4.490155E-2,1.9474735E-2,-2.8035669E-2,1.7655646E-2,-3.4001023E-2,-4.4441367E-3,-7.706108E-2,-2.5174895E-2,1.2852261E-2,-1.6216425E-2,-2.6145095E-2,-4.825352E-2,-7.3995665E-2,6.495973E-2,3.7316214E-2,6.039796E-2,-6.0122695E-2,6.290748E-2],"categories":[],"categories_nodes":[],"categories_segments":[],"categories_sizes":[],"default_left":[0,0,0,0,0,0,0,0,0,0,0,0,0,0,0,0,0,0,0,0,0,0,0,0,0,0,0,0,0,0,0,0,0,0,0,0,0,0,0,0,0,0,0,0,0,0,0],"id":13,"left_children":[1,3,5,7,9,11,13,15,17,19,21,23,25,-1,-1,27,29,31,33,35,37,39,41,43,-1,45,-1,-1,-1,-1,-1,-1,-1,-1,-1,-1,-1,-1,-1,-1,-1,-1,-1,-1,-1,-1,-1],"loss_changes":[1.7302251E3,1.5722708E3,2.1083862E1,6.450272E2,2.1209058E2,2.9892471E1,1.7413696E1,2.1191577E2,4.3103964E2,2.1700201E2,9.033319E1,1.5786087E1,2.3084084E1,0E0,0E0,9.397349E1,1.4068005E2,4.135756E2,1.9372041E2,1.889256E2,1.9867377E2,9.531323E1,7.5390564E1,8.87352E0,0E0,1.3186181E1,0E0,0E0,0E0,0E0,0E0,0E0,0E0,0E0,0E0,0E0,0E0,0E0,0E0,0E0,0E0,0E0,0E0,0E0,0E0,0E0,0E0],"parents":[2147483647,0,0,1,1,2,2,3,3,4,4,5,5,6,6,7,7,8,8,9,9,10,10,11,11,12,12,15,15,16,16,17,17,18,18,19,19,20,20,21,21,22,22,23,23,25,25],"right_children":[2,4,6,8,10,12,14,16,18,20,22,24,26,-1,-1,28,30,32,34,36,38,40,42,44,-1,46,-1,-1,-1,-1,-1,-1,-1,-1,-1,-1,-1,-1,-1,-1,-1,-1,-1,-1,-1,-1,-1],"split_conditions":[9E0,5.9924E2,2E0,1.0818E2,1.332184E4,5.8541E2,6E0,6E0,2E0,1.1E1,2E0,2E0,4.4827586E-1,6.42284E-2,-5.5624295E-2,2E0,1E0,7E0,5E0,1.094E1,7.0142E2,1E0,1E0,2.16E0,-5.206254E-2,4.4642857E-1,-7.444676E-2,1.7436028E-2,-1.675204E-2,4.490155E-2,1.9474735E-2,-2.8035669E-2,1.7655646E-2,-3.4001023E-2,-4.4441367E-3,-7.706108E-2,-2.5174895E-2,1.2852261E-2,-1.6216425E-2,-2.6145095E-2,-4.825352E-2,-7.3995665E-2,6.495973E-2,3.7316214E-2,6.039796E-2,-6.0122695E-2,6.290748E-2],"split_indices":[8,4,7,4,4,4,7,7,8,7,0,2,5,0,0,1,10,7,7,6,4,1,1,6,0,5,0,0,0,0,0,0,0,0,0,0,0,0,0,0,0,0,0,0,0,0,0],"split_type":[0,0,0,0,0,0,0,0,0,0,0,0,0,0,0,0,0,0,0,0,0,0,0,0,0,0,0,0,0,0,0,0,0,0,0,0,0,0,0,0,0,0,0,0,0,0,0],"sum_hessian":[2.3647764E4,2.2516283E4,1.1314803E3,1.4741212E4,7.775072E3,2.3330014E2,8.9818024E2,3.1709265E3,1.1570285E4,5.76413E3,2.010942E3,2.1557808E2,1.7722055E1,8.9585376E2,2.3264587E0,9.024287E2,2.2684978E3,4.8702876E3,6.699997E3,9.1476685E2,4.849363E3,1.9608213E3,5.0120697E1,2.1270848E2,2.8696115E0,9.85874E0,7.8633156E0,6.01811E2,3.0061768E2,1.3566064E3,9.1189124E2,5.585992E2,4.3116885E3,6.089351E2,6.091062E3,2.365445E2,6.7822235E2,6.83574E2,4.165789E3,1.00904285E3,9.517785E2,1.210287E1,3.8017826E1,6.828162E1,1.4442686E2,2.01798E0,7.84076E0],"tree_param":{"num_deleted":"0","num_feature":"13","num_nodes":"47","size_leaf_vector":"1"}},{"base_weights":[1.3873763E-4,-5.7719372E-2,1.1805638E0,3.1571445E-1,-2.3093013E-1,9.0267855E-1,1.2522488E0,-2.8756055E-1,4.8787597E-1,-6.5483324E-2,-4.4353876E-1,1.0024976E0,-2.9925385E-1,6.298282E-2,-5.4262757E-2,6.27471E-2,-1.2144392E0,6.6832834E-1,3.0056804E-1,-2.183544E-1,2.1576142E-1,-1.3276528E0,-4.034112E-1,1.0345227E0,-5.1000524E-2,6.7054296E-1,-7.240468E-2,8.736263E-3,-3.8219873E-2,-6.462344E-2,4.0854394E-2,3.4851525E-2,-2.595113E-2,1.7097626E-2,-2.4395274E-2,-1.4907244E-2,2.0544244E-2,2.8188497E-2,-6.829047E-3,-7.211116E-2,-1.602384E-2,-1.3065904E-2,-3.2250594E-2,3.5968248E-2,5.8965173E-2,-5.8569558E-2,6.158792E-2],"categories":[],"categories_nodes":[],"categories_segments":[],"categories_sizes":[],"default_left":[0,0,0,0,0,0,0,0,0,0,0,0,0,0,0,0,0,0,0,0,0,0,0,0,0,0,0,0,0,0,0,0,0,0,0,0,0,0,0,0,0,0,0,0,0,0,0],"id":14,"left_children":[1,3,5,7,9,11,13,15,17,19,21,23,25,-1,-1,27,29,31,33,35,37,39,41,43,-1,45,-1,-1,-1,-1,-1,-1,-1,-1,-1,-1,-1,-1,-1,-1,-1,-1,-1,-1,-1,-1,-1],"loss_changes":[1.6079635E3,1.4517849E3,2.0782959E1,7.3879083E2,5.393029E2,2.779457E1,1.6464478E1,5.129647E2,1.8682605E2,3.7082272E2,2.3750977E2,1.4775314E1,2.140751E1,0E0,0E0,1.0639946E2,6.974341E1,9.637793E1,8.882088E1,2.8065668E2,3.7250964E2,3.310327E1,2.2022559E2,8.688965E0,0E0,1.2431316E1,0E0,0E0,0E0,0E0,0E0,0E0,0E0,0E0,0E0,0E0,0E0,0E0,0E0,0E0,0E0,0E0,0E0,0E0,0E0,0E0,0E0],"parents":[2147483647,0,0,1,1,2,2,3,3,4,4,5,5,6,6,7,7,8,8,9,9,10,10,11,11,12,12,15,15,16,16,17,17,18,18,19,19,20,20,21,21,22,22,23,23,25,25],"right_children":[2,4,6,8,10,12,14,16,18,20,22,24,26,-1,-1,28,30,32,34,36,38,40,42,44,-1,46,-1,-1,-1,-1,-1,-1,-1,-1,-1,-1,-1,-1,-1,-1,-1,-1,-1,-1,-1,-1,-1],"split_conditions":[9E0,1.3768E2,2E0,6E0,7.0142E2,5.8541E2,6E0,1.1266E2,2E0,4.5236E2,7.6201E2,2E0,4.4827586E-1,6.298282E-2,-5.4262757E-2,3.4166667E0,5E0,5.46E0,4.32E0,6.2E1,5.6389E2,4E0,1.177582E4,2.16E0,-5.1000524E-2,4.4642857E-1,-7.240468E-2,8.736263E-3,-3.8219873E-2,-6.462344E-2,4.0854394E-2,3.4851525E-2,-2.595113E-2,1.7097626E-2,-2.4395274E-2,-1.4907244E-2,2.0544244E-2,2.8188497E-2,-6.829047E-3,-7.211116E-2,-1.602384E-2,-1.3065904E-2,-3.2250594E-2,3.5968248E-2,5.8965173E-2,-5.8569558E-2,6.158792E-2],"split_indices":[8,4,7,7,4,4,7,4,8,4,4,2,5,0,0,6,8,6,6,7,4,2,4,6,0,5,0,0,0,0,0,0,0,0,0,0,0,0,0,0,0,0,0,0,0,0,0],"split_type":[0,0,0,0,0,0,0,0,0,0,0,0,0,0,0,0,0,0,0,0,0,0,0,0,0,0,0,0,0,0,0,0,0,0,0,0,0,0,0,0,0,0,0,0,0,0,0],"sum_hessian":[2.3541637E4,2.2442572E4,1.0990635E3,7.110932E3,1.5331641E4,2.2816776E2,8.7089575E2,1.5786123E3,5.53232E3,8.6228545E3,6.7087856E3,2.1082494E2,1.7342829E1,8.686042E2,2.2915657E0,1.1463059E3,4.3230643E2,2.8164167E3,2.7159033E3,5.586517E3,3.0363374E3,2.898804E2,6.4189053E3,2.0801958E2,2.8053553E0,9.629981E0,7.7128487E0,1.01031854E3,1.3598735E2,4.1666635E2,1.5640078E1,2.750345E3,6.6071754E1,2.581001E3,1.3490213E2,4.9583066E3,6.282103E2,1.5272615E3,1.5090759E3,2.5988544E2,2.9994967E1,4.0431064E3,2.3757988E3,6.7359825E1,1.4065974E2,1.9950144E0,7.6349664E0],"tree_param":{"num_deleted":"0","num_feature":"13","num_nodes":"47","size_leaf_vector":"1"}},{"base_weights":[1.4630337E-4,-5.5050682E-2,1.156444E0,3.01531E-1,-2.1999086E-1,8.776874E-1,1.2290066E0,-2.7543417E-1,4.657659E-1,-6.2231522E-2,-4.2369747E-1,9.7505647E-1,-2.9435337E-1,1.2363905E0,-5.2978016E-2,5.9659544E-2,-1.1807578E0,6.399312E-1,2.8605106E-1,-2.074592E-1,2.0522285E-1,-1.2851784E0,-3.8511574E-1,1.00644E0,-4.998863E-2,6.520949E-1,-7.0517294E-2,6.1962314E-2,4.0420856E-2,8.905464E-3,-3.296784E-2,-6.291679E-2,3.849337E-2,4.102061E-2,2.3104766E-2,1.6274936E-2,-2.3149764E-2,-4.124395E-2,-6.567282E-3,2.6830127E-2,-6.4905956E-3,-7.653038E-2,-3.9872885E-2,-1.2437926E-2,-3.0934015E-2,3.4671914E-2,5.7612192E-2,-5.7101984E-2,6.035437E-2],"categories":[],"categories_nodes":[],"categories_segments":[],"categories_sizes":[],"default_left":[0,0,0,0,0,0,0,0,0,0,0,0,0,0,0,0,0,0,0,0,0,0,0,0,0,0,0,0,0,0,0,0,0,0,0,0,0,0,0,0,0,0,0,0,0,0,0,0,0],"id":15,"left_children":[1,3,5,7,9,11,13,15,17,19,21,23,25,27,-1,29,31,33,35,37,39,41,43,45,-1,47,-1,-1,-1,-1,-1,-1,-1,-1,-1,-1,-1,-1,-1,-1,-1,-1,-1,-1,-1,-1,-1,-1,-1],"loss_changes":[1.4956705E3,1.3155474E3,2.05177E1,6.7046655E2,4.914496E2,2.585257E1,1.5583496E1,4.757923E2,1.7218933E2,3.3485214E2,2.2134814E2,1.3839905E1,1.9880665E1,2.7709961E-2,0E0,9.76732E1,6.508142E1,8.935864E1,8.029039E1,2.6244293E2,3.3690707E2,3.2975403E1,2.0335034E2,8.52597E0,0E0,1.1731636E1,0E0,0E0,0E0,0E0,0E0,0E0,0E0,0E0,0E0,0E0,0E0,0E0,0E0,0E0,0E0,0E0,0E0,0E0,0E0,0E0,0E0,0E0,0E0],"parents":[2147483647,0,0,1,1,2,2,3,3,4,4,5,5,6,6,7,7,8,8,9,9,10,10,11,11,12,12,13,13,15,15,16,16,17,17,18,18,19,19,20,20,21,21,22,22,23,23,25,25],"right_children":[2,4,6,8,10,12,14,16,18,20,22,24,26,28,-1,30,32,34,36,38,40,42,44,46,-1,48,-1,-1,-1,-1,-1,-1,-1,-1,-1,-1,-1,-1,-1,-1,-1,-1,-1,-1,-1,-1,-1,-1,-1],"split_conditions":[9E0,1.3768E2,2E0,6E0,7.0142E2,5.8541E2,6E0,1.1266E2,2E0,4.5236E2,7.6201E2,2E0,4.4827586E-1,6E0,-5.2978016E-2,3.11E0,5E0,1.0879E2,4.32E0,1.5E1,5.6389E2,1.2105E1,1.177582E4,2.16E0,-4.998863E-2,4.4642857E-1,-7.0517294E-2,6.1962314E-2,4.0420856E-2,8.905464E-3,-3.296784E-2,-6.291679E-2,3.849337E-2,4.102061E-2,2.3104766E-2,1.6274936E-2,-2.3149764E-2,-4.124395E-2,-6.567282E-3,2.6830127E-2,-6.4905956E-3,-7.653038E-2,-3.9872885E-2,-1.2437926E-2,-3.0934015E-2,3.4671914E-2,5.7612192E-2,-5.7101984E-2,6.035437E-2],"split_indices":[8,4,7,7,4,4,7,4,8,4,4,2,5,2,0,6,8,4,6,7,4,6,4,6,0,5,0,0,0,0,0,0,0,0,0,0,0,0,0,0,0,0,0,0,0,0,0,0,0],"split_type":[0,0,0,0,0,0,0,0,0,0,0,0,0,0,0,0,0,0,0,0,0,0,0,0,0,0,0,0,0,0,0,0,0,0,0,0,0,0,0,0,0,0,0,0,0,0,0,0,0],"sum_hessian":[2.3432244E4,2.2365555E4,1.066689E3,7.073226E3,1.5292328E4,2.2302249E2,8.4366644E2,1.5671335E3,5.506093E3,8.618832E3,6.6734966E3,2.060709E2,1.6951586E1,8.414115E2,2.254958E0,1.1444606E3,4.2267303E2,2.794919E3,2.7111738E3,5.5859087E3,3.032923E3,2.8467847E2,6.388818E3,2.0332999E2,2.7409163E0,9.397476E0,7.554108E0,8.339511E2,7.4604125E0,9.832359E2,1.612246E2,4.0684726E2,1.5825775E1,1.3853503E3,1.4095686E3,2.5760732E3,1.3510056E2,6.1195984E2,4.9739487E3,1.5244764E3,1.5084468E3,1.8795708E2,9.672139E1,4.0351333E3,2.3536846E3,6.644539E1,1.368846E2,1.9702988E0,7.427178E0],"tree_param":{"num_deleted":"0","num_feature":"13","num_nodes":"49","size_leaf_vector":"1"}},{"base_weights":[1.5506973E-4,-5.2518237E-2,1.1336911E0,2.8811458E-1,-2.0961343E-1,8.53797E-1,1.2072352E0,-2.638981E-1,4.4486994E-1,-5.9166703E-2,-4.047741E-1,9.487814E-1,-2.898564E-1,1.2146018E0,-5.1762708E-2,5.673567E-2,-1.149243E0,6.132797E-1,2.722492E-1,-1.9718856E-1,1.9522686E-1,-1.246239E0,-3.6764827E-1,9.7955394E-1,-4.9022313E-2,6.346692E-1,-6.876616E-2,1.2174855E0,3.9384898E-2,1.22653125E-2,-1.9346546E-2,-6.1323E-2,3.6315814E-2,3.2062683E-2,-2.6314905E-2,1.5492411E-2,-2.1975454E-2,-1.3628754E-2,1.9845523E-2,-1.2949205E-2,2.201222E-2,-7.454987E-2,-3.8319584E-2,-1.1839888E-2,-2.967284E-2,3.34235E-2,5.6329478E-2,-5.5712122E-2,5.9197415E-2,5.0697815E-2,6.1269935E-2],"categories":[],"categories_nodes":[],"categories_segments":[],"categories_sizes":[],"default_left":[0,0,0,0,0,0,0,0,0,0,0,0,0,0,0,0,0,0,0,0,0,0,0,0,0,0,0,0,0,0,0,0,0,0,0,0,0,0,0,0,0,0,0,0,0,0,0,0,0,0,0],"id":16,"left_children":[1,3,5,7,9,11,13,15,17,19,21,23,25,27,-1,29,31,33,35,37,39,41,43,45,-1,47,-1,49,-1,-1,-1,-1,-1,-1,-1,-1,-1,-1,-1,-1,-1,-1,-1,-1,-1,-1,-1,-1,-1,-1,-1],"loss_changes":[1.3923776E3,1.1925499E3,2.0285034E1,6.0877545E2,4.4778314E2,2.4052841E1,1.4764038E1,4.4185648E2,1.59104E2,3.024779E2,2.0694556E2,1.29726715E1,1.84865E1,4.4921875E-2,0E0,9.576167E1,6.0822754E1,8.871643E1,7.2587845E1,2.5022089E2,3.373338E2,3.1756592E1,1.8777667E2,8.379532E0,0E0,1.1081861E1,0E0,5.908203E-2,0E0,0E0,0E0,0E0,0E0,0E0,0E0,0E0,0E0,0E0,0E0,0E0,0E0,0E0,0E0,0E0,0E0,0E0,0E0,0E0,0E0,0E0,0E0],"parents":[2147483647,0,0,1,1,2,2,3,3,4,4,5,5,6,6,7,7,8,8,9,9,10,10,11,11,12,12,13,13,15,15,16,16,17,17,18,18,19,19,20,20,21,21,22,22,23,23,25,25,27,27],"right_children":[2,4,6,8,10,12,14,16,18,20,22,24,26,28,-1,30,32,34,36,38,40,42,44,46,-1,48,-1,50,-1,-1,-1,-1,-1,-1,-1,-1,-1,-1,-1,-1,-1,-1,-1,-1,-1,-1,-1,-1,-1,-1,-1],"split_conditions":[9E0,1.3768E2,2E0,6E0,7.0142E2,5.8541E2,6E0,1.1266E2,2E0,4.5236E2,7.6201E2,2E0,4.4827586E-1,6E0,-5.1762708E-2,2E0,5E0,5.46E0,4.32E0,6.2E1,9E0,1.2105E1,1.177582E4,2.16E0,-4.9022313E-2,4.4642857E-1,-6.876616E-2,1.1768E2,3.9384898E-2,1.22653125E-2,-1.9346546E-2,-6.1323E-2,3.6315814E-2,3.2062683E-2,-2.6314905E-2,1.5492411E-2,-2.1975454E-2,-1.3628754E-2,1.9845523E-2,-1.2949205E-2,2.201222E-2,-7.454987E-2,-3.8319584E-2,-1.1839888E-2,-2.967284E-2,3.34235E-2,5.6329478E-2,-5.5712122E-2,5.9197415E-2,5.0697815E-2,6.1269935E-2],"split_indices":[8,4,7,7,4,4,7,4,8,4,4,2,5,2,0,1,8,6,6,7,7,6,4,6,0,5,0,4,0,0,0,0,0,0,0,0,0,0,0,0,0,0,0,0,0,0,0,0,0,0,0],"split_type":[0,0,0,0,0,0,0,0,0,0,0,0,0,0,0,0,0,0,0,0,0,0,0,0,0,0,0,0,0,0,0,0,0,0,0,0,0,0,0,0,0,0,0,0,0,0,0,0,0,0,0],"sum_hessian":[2.3318143E4,2.2283617E4,1.0345245E3,7.032994E3,1.5250624E4,2.1788994E2,8.1663464E2,1.5553076E3,5.4776865E3,8.612595E3,6.6380293E3,2.0133847E2,1.655146E1,8.1441766E2,2.2169478E0,1.1424847E3,4.1282285E2,2.7713699E3,2.7063167E3,5.583486E3,3.0291091E3,2.7912103E2,6.358908E3,1.9866193E2,2.6765454E0,9.162651E0,7.38881E0,8.071135E2,7.304127E0,8.020419E2,3.404429E2,3.9683133E2,1.59915085E1,2.705396E3,6.59738E1,2.5710635E3,1.3525327E2,4.955245E3,6.2824066E2,1.061414E3,1.9676951E3,1.8344366E2,9.567736E1,4.0272585E3,2.3316494E3,6.5541565E1,1.3312036E2,1.9440898E0,7.218561E0,3.503853E1,7.72075E2],"tree_param":{"num_deleted":"0","num_feature":"13","num_nodes":"51","size_leaf_vector":"1"}},{"base_weights":[1.6360465E-4,-5.009515E-2,1.112153E0,1.097745E-1,-3.553794E-1,8.308847E-1,1.186777E0,3.1518996E-1,-6.4916685E-2,-7.5990194E-1,-2.9526514E-1,9.2354256E-1,-2.857198E-1,1.1941321E0,-5.061034E-2,-1.2870193E-1,4.202742E-1,-7.655205E-2,-3.42691E-2,-1.4573834E0,-5.4669285E-1,-2.4104156E-1,-9.105269E-1,9.5373076E-1,-4.8097566E-2,6.1815876E-1,-6.7135625E-2,1.1970527E0,3.8378824E-2,1.4676749E-2,-2.631768E-2,3.009344E-2,1.0117381E-2,3.9737998E-3,-1.8665172E-2,-8.101388E-2,3.1252023E-2,-1.2785642E-2,-7.119024E-2,-1.5428463E-2,1.8995022E-2,-5.8166306E-2,-2.4432784E-2,3.2219753E-2,5.5108696E-2,-5.4393053E-2,5.8108833E-2,4.9587175E-2,6.0254306E-2],"categories":[],"categories_nodes":[],"categories_segments":[],"categories_sizes":[],"default_left":[0,0,0,0,0,0,0,0,0,0,0,0,0,0,0,0,0,0,0,0,0,0,0,0,0,0,0,0,0,0,0,0,0,0,0,0,0,0,0,0,0,0,0,0,0,0,0,0,0],"id":17,"left_children":[1,3,5,7,9,11,13,15,17,19,21,23,25,27,-1,29,31,-1,33,35,37,39,41,43,-1,45,-1,47,-1,-1,-1,-1,-1,-1,-1,-1,-1,-1,-1,-1,-1,-1,-1,-1,-1,-1,-1,-1,-1],"loss_changes":[1.2971906E3,1.0838752E3,2.008081E1,5.2305194E2,1.8538354E2,2.238327E1,1.4000732E1,3.1252893E2,3.5391565E2,1.4596033E2,2.2152869E2,1.2167404E1,1.7210423E1,6.37207E-2,0E0,2.1558275E2,2.1424432E2,0E0,2.9763876E2,7.918277E1,1.9294794E2,2.563062E2,5.68067E1,8.245499E0,0E0,1.0477352E1,0E0,9.399414E-2,0E0,0E0,0E0,0E0,0E0,0E0,0E0,0E0,0E0,0E0,0E0,0E0,0E0,0E0,0E0,0E0,0E0,0E0,0E0,0E0,0E0],"parents":[2147483647,0,0,1,1,2,2,3,3,4,4,5,5,6,6,7,7,8,8,9,9,10,10,11,11,12,12,13,13,15,15,16,16,18,18,19,19,20,20,21,21,22,22,23,23,25,25,27,27],"right_children":[2,4,6,8,10,12,14,16,18,20,22,24,26,28,-1,30,32,-1,34,36,38,40,42,44,-1,46,-1,48,-1,-1,-1,-1,-1,-1,-1,-1,-1,-1,-1,-1,-1,-1,-1,-1,-1,-1,-1,-1,-1],"split_conditions":[9E0,5.9924E2,2E0,1E0,1.1E1,5.8541E2,6E0,5E0,3E0,1.094E1,2.26515E4,2E0,4.4827586E-1,6E0,-5.061034E-2,1.094E2,2E0,-7.655205E-2,2.0481E2,5E0,1.177582E4,8.8E1,9.7E1,2.16E0,-4.8097566E-2,4.4642857E-1,-6.7135625E-2,1.1768E2,3.8378824E-2,1.4676749E-2,-2.631768E-2,3.009344E-2,1.0117381E-2,3.9737998E-3,-1.8665172E-2,-8.101388E-2,3.1252023E-2,-1.2785642E-2,-7.119024E-2,-1.5428463E-2,1.8995022E-2,-5.8166306E-2,-2.4432784E-2,3.2219753E-2,5.5108696E-2,-5.4393053E-2,5.8108833E-2,4.9587175E-2,6.0254306E-2],"split_indices":[8,4,7,10,7,4,7,7,7,6,4,2,5,2,0,4,8,0,4,2,4,7,7,6,0,5,0,4,0,0,0,0,0,0,0,0,0,0,0,0,0,0,0,0,0,0,0,0,0],"split_type":[0,0,0,0,0,0,0,0,0,0,0,0,0,0,0,0,0,0,0,0,0,0,0,0,0,0,0,0,0,0,0,0,0,0,0,0,0,0,0,0,0,0,0,0,0,0,0,0,0],"sum_hessian":[2.3208871E4,2.2206172E4,1.0027007E3,1.4574509E4,7.631662E3,2.1279199E2,7.8990875E2,6.6978516E3,7.8766577E3,9.858711E2,6.6457905E3,1.9664677E2,1.614521E1,7.877309E2,2.1778169E0,1.2820503E3,5.4158013E3,1.6027837E2,7.7163794E3,2.2944403E2,7.5642706E2,6.1088076E3,5.369829E2,1.9403432E2,2.6124616E0,8.926747E0,7.218463E0,7.8057996E2,7.15096E0,6.2193036E2,6.6012E2,2.9531926E3,2.4626084E3,5.7784805E3,1.9378987E3,2.1300406E2,1.6439976E1,5.689655E2,1.8746155E2,5.510087E3,5.9872107E2,3.346763E2,2.0230663E2,6.4651085E1,1.2938322E2,1.91662E0,7.0101275E0,3.407905E1,7.465009E2],"tree_param":{"num_deleted":"0","num_feature":"13","num_nodes":"49","size_leaf_vector":"1"}},{"base_weights":[1.5882471E-4,-4.779561E-2,1.0916731E0,2.6583242E-1,-1.9195645E-1,8.0884457E-1,1.167467E0,-1.766961E-1,4.387702E-1,1.2572461E-2,-3.239816E-1,8.9922816E-1,-2.819061E-1,1.1748164E0,-4.9515188E-2,2.1191669E-1,-9.356607E-1,5.850412E-1,2.6287103E-1,1.0904048E-1,-6.534671E-1,-2.954678E-1,-1.0571725E0,9.2885536E-1,-4.721081E-2,6.024705E-1,-6.561229E-2,9.702769E-1,1.18278E0,2.1177037E-2,-1.352602E-2,-5.5374425E-2,-2.4277916E-2,1.9714603E-2,3.985535E-2,1.1794622E-2,6.828421E-2,6.897848E-3,-5.0759632E-2,-7.455199E-2,-2.323312E-2,-1.4138951E-2,-8.564195E-2,-6.2162966E-2,5.021531E-3,3.1057868E-2,5.3942617E-2,-5.3138662E-2,5.708145E-2,5.9267502E-2,1.0078031E-2,5.9297938E-2,3.740046E-2],"categories":[],"categories_nodes":[],"categories_segments":[],"categories_sizes":[],"default_left":[0,0,0,0,0,0,0,0,0,0,0,0,0,0,0,0,0,0,0,0,0,0,0,0,0,0,0,0,0,0,0,0,0,0,0,0,0,0,0,0,0,0,0,0,0,0,0,0,0,0,0,0,0],"id":18,"left_children":[1,3,5,7,9,11,13,15,17,19,21,23,25,27,-1,29,31,33,35,37,39,41,43,45,-1,47,-1,49,51,-1,-1,-1,-1,-1,-1,-1,-1,-1,-1,-1,-1,-1,-1,-1,-1,-1,-1,-1,-1,-1,-1,-1,-1],"loss_changes":[1.2092874E3,1.0006513E3,1.989856E1,5.3345874E2,4.094308E2,2.0833054E1,1.3287842E1,5.7801337E2,1.2878711E2,3.822973E2,1.9232416E2,1.141861E1,1.603988E1,9.423828E-2,0E0,1.3247821E2,5.0785156E1,1.1033539E2,6.742786E1,1.690932E2,1.1834747E2,1.5905542E2,7.434497E1,8.120468E0,0E0,9.914031E0,0E0,5.4050484E0,1.2072754E-1,0E0,0E0,0E0,0E0,0E0,0E0,0E0,0E0,0E0,0E0,0E0,0E0,0E0,0E0,0E0,0E0,0E0,0E0,0E0,0E0,0E0,0E0,0E0,0E0],"parents":[2147483647,0,0,1,1,2,2,3,3,4,4,5,5,6,6,7,7,8,8,9,9,10,10,11,11,12,12,13,13,15,15,16,16,17,17,18,18,19,19,20,20,21,21,22,22,23,23,25,25,27,27,28,28],"right_children":[2,4,6,8,10,12,14,16,18,20,22,24,26,28,-1,30,32,34,36,38,40,42,44,46,-1,48,-1,50,52,-1,-1,-1,-1,-1,-1,-1,-1,-1,-1,-1,-1,-1,-1,-1,-1,-1,-1,-1,-1,-1,-1,-1,-1],"split_conditions":[9E0,1.3768E2,2E0,7E0,2E0,5.8541E2,6E0,1.094E2,1E0,1.177582E4,2.26515E4,2E0,4.4827586E-1,1.1768E2,-4.9515188E-2,2E0,3E0,1.2E1,5E0,5E0,2.4E1,6E0,1.15E2,2.16E0,-4.721081E-2,4.4642857E-1,-6.561229E-2,3.030303E-1,6E0,2.1177037E-2,-1.352602E-2,-5.5374425E-2,-2.4277916E-2,1.9714603E-2,3.985535E-2,1.1794622E-2,6.828421E-2,6.897848E-3,-5.0759632E-2,-7.455199E-2,-2.323312E-2,-1.4138951E-2,-8.564195E-2,-6.2162966E-2,5.021531E-3,3.1057868E-2,5.3942617E-2,-5.3138662E-2,5.708145E-2,5.9267502E-2,1.0078031E-2,5.9297938E-2,3.740046E-2],"split_indices":[8,4,7,7,8,4,7,4,10,4,4,2,5,4,0,1,8,7,2,1,7,2,7,6,0,5,0,5,2,0,0,0,0,0,0,0,0,0,0,0,0,0,0,0,0,0,0,0,0,0,0,0,0],"split_type":[0,0,0,0,0,0,0,0,0,0,0,0,0,0,0,0,0,0,0,0,0,0,0,0,0,0,0,0,0,0,0,0,0,0,0,0,0,0,0,0,0,0,0,0,0,0,0,0,0,0,0,0,0],"sum_hessian":[2.3101162E4,2.212987E4,9.712943E2,6.9685806E3,1.5161288E4,2.0774734E2,7.63547E2,1.9580714E3,5.0105093E3,5.947903E3,9.213385E3,1.920121E2,1.5735244E1,7.614092E2,2.1378179E0,1.2954717E3,6.625998E2,2.7343787E3,2.2761306E3,5.196139E3,7.517635E2,8.86984E3,3.4354532E2,1.8946324E2,2.5488546E0,8.690851E0,7.044392E0,3.313757E1,7.282716E2,9.005582E2,3.9491342E2,4.7847876E2,1.8412106E2,1.4410453E3,1.2933335E3,2.2229631E3,5.316741E1,5.066696E3,1.294436E2,1.3702007E2,6.147434E2,8.792327E3,7.751248E1,2.959042E2,4.7641113E1,6.3776253E1,1.2568699E2,1.8880994E0,6.802752E0,2.5469633E1,7.6679363E0,7.2127045E2,7.0011206E0],"tree_param":{"num_deleted":"0","num_feature":"13","num_nodes":"53","size_leaf_vector":"1"}},{"base_weights":[1.6210464E-4,-4.558699E-2,1.0721426E0,8.693097E-2,-3.6015785E-1,7.875838E-1,1.1491941E0,4.3473235E-1,1.6705559E-3,-1.1927202E0,-3.240805E-1,8.757401E-1,-2.783827E-1,1.1565428E0,-4.847218E-2,9.294839E-2,5.7604444E-1,-3.7243977E-1,9.709228E-2,-1.3119588E0,-1.7231344E-1,-2.760361E-1,-8.5798335E-1,9.048268E-1,-4.6358854E-2,5.875231E-1,-6.418463E-2,9.4986236E-1,1.1646515E0,6.8678446E-3,-8.830656E-2,4.485723E-2,1.947303E-2,-2.9002884E-2,3.0605593E-3,1.7111998E-2,-1.8407835E-3,-7.306226E-2,-2.6328659E-2,-7.03175E-2,9.075635E-2,-1.756471E-2,1.8678432E-2,-8.095703E-3,-5.0594885E-2,2.9935375E-2,5.2824855E-2,-5.194354E-2,5.6108948E-2,5.8372807E-2,9.683034E-3,5.839443E-2,3.6447894E-2],"categories":[],"categories_nodes":[],"categories_segments":[],"categories_sizes":[],"default_left":[0,0,0,0,0,0,0,0,0,0,0,0,0,0,0,0,0,0,0,0,0,0,0,0,0,0,0,0,0,0,0,0,0,0,0,0,0,0,0,0,0,0,0,0,0,0,0,0,0,0,0,0,0],"id":19,"left_children":[1,3,5,7,9,11,13,15,17,19,21,23,25,27,-1,29,31,33,35,37,39,41,43,45,-1,47,-1,49,51,-1,-1,-1,-1,-1,-1,-1,-1,-1,-1,-1,-1,-1,-1,-1,-1,-1,-1,-1,-1,-1,-1,-1,-1],"loss_changes":[1.1279784E3,9.195801E2,1.973584E1,4.602638E2,1.9600677E2,1.9392563E1,1.2621155E1,1.475365E2,4.4506915E2,3.277008E1,1.6055084E2,1.0721329E1,1.4964001E1,1.281128E-1,0E0,7.413753E1,1.2916553E2,2.2815784E2,3.2611084E2,2.7682373E1,7.49654E1,2.8134714E2,5.5227356E1,8.001526E0,0E0,9.388279E0,0E0,5.2413883E0,1.4202881E-1,0E0,0E0,0E0,0E0,0E0,0E0,0E0,0E0,0E0,0E0,0E0,0E0,0E0,0E0,0E0,0E0,0E0,0E0,0E0,0E0,0E0,0E0,0E0,0E0],"parents":[2147483647,0,0,1,1,2,2,3,3,4,4,5,5,6,6,7,7,8,8,9,9,10,10,11,11,12,12,13,13,15,15,16,16,17,17,18,18,19,19,20,20,21,21,22,22,23,23,25,25,27,27,28,28],"right_children":[2,4,6,8,10,12,14,16,18,20,22,24,26,28,-1,30,32,34,36,38,40,42,44,46,-1,48,-1,50,52,-1,-1,-1,-1,-1,-1,-1,-1,-1,-1,-1,-1,-1,-1,-1,-1,-1,-1,-1,-1,-1,-1,-1,-1],"split_conditions":[9E0,7.0142E2,2E0,1.0818E2,7.6201E2,5.8541E2,6E0,6E0,9E0,4E0,2.26515E4,2E0,4.4827586E-1,1.1768E2,-4.847218E-2,6E0,1.915E0,2E0,1E0,3.9E1,2.4E1,8.8E1,1.7499E2,2.16E0,-4.6358854E-2,4.4642857E-1,-6.418463E-2,3.030303E-1,6E0,6.8678446E-3,-8.830656E-2,4.485723E-2,1.947303E-2,-2.9002884E-2,3.0605593E-3,1.7111998E-2,-1.8407835E-3,-7.306226E-2,-2.6328659E-2,-7.03175E-2,9.075635E-2,-1.756471E-2,1.8678432E-2,-8.095703E-3,-5.0594885E-2,2.9935375E-2,5.2824855E-2,-5.194354E-2,5.6108948E-2,5.8372807E-2,9.683034E-3,5.839443E-2,3.6447894E-2],"split_indices":[8,4,7,4,4,4,7,7,7,2,4,2,5,4,0,1,6,2,10,7,7,7,6,6,0,5,0,5,2,0,0,0,0,0,0,0,0,0,0,0,0,0,0,0,0,0,0,0,0,0,0,0,0],"split_type":[0,0,0,0,0,0,0,0,0,0,0,0,0,0,0,0,0,0,0,0,0,0,0,0,0,0,0,0,0,0,0,0,0,0,0,0,0,0,0,0,0,0,0,0,0,0,0,0,0,0,0,0,0],"sum_hessian":[2.2998191E4,2.2057785E4,9.404063E2,1.5520325E4,6.5374595E3,2.0277176E2,7.376346E2,3.0548062E3,1.246552E4,2.7018967E2,6.2672695E3,1.874481E2,1.5323658E1,7.355374E2,2.097177E0,8.940568E2,2.1607493E3,2.5327437E3,9.932775E3,2.4166447E2,2.852518E1,5.751248E3,5.160215E2,1.8496222E2,2.4858897E0,8.455899E0,6.8677588E0,3.2227924E1,7.0330945E2,8.7410297E2,1.9953896E1,7.927183E2,1.368031E3,1.7125116E3,8.202322E2,3.508375E3,6.4244004E3,2.0234254E2,3.9321926E1,1.777855E1,1.0746631E1,5.154543E3,5.967055E2,9.381232E1,4.2220914E2,6.291896E1,1.2204326E2,1.8587174E0,6.597182E0,2.4604301E1,7.623623E0,6.9645465E2,6.8547807E0],"tree_param":{"num_deleted":"0","num_feature":"13","num_nodes":"53","size_leaf_vector":"1"}},{"base_weights":[1.7475607E-4,-4.34814E-2,1.0534472E0,2.4573581E-1,-1.7579019E-1,7.6702213E-1,1.1318393E0,-1.6907324E-1,4.0763032E-1,1.7515926E-2,-3.0078852E-1,8.5299367E-1,-2.7512133E-1,1.1391921E0,-4.747682E-2,1.9396105E-1,-8.914952E-1,5.609761E-1,2.5406116E-1,1.0727544E-1,-6.129531E-1,-2.744496E-1,-1.0067878E0,8.81558E-1,-4.5538865E-2,5.732446E-1,-6.2842645E-2,9.301563E-1,1.147459E0,1.9761493E-2,-1.31396605E-2,-3.396601E-2,-6.40954E-2,2.8926406E-2,-5.5381972E-2,1.4822142E-2,-2.7951727E-2,6.7336494E-3,-4.8097674E-2,-7.2374634E-2,-2.1395827E-2,-1.3114559E-2,-8.264934E-2,-5.992639E-2,7.185507E-3,2.8850142E-2,5.1749814E-2,-5.0802868E-2,5.5185743E-2,5.7526328E-2,9.302149E-3,5.75381E-2,3.5519406E-2],"categories":[],"categories_nodes":[],"categories_segments":[],"categories_sizes":[],"default_left":[0,0,0,0,0,0,0,0,0,0,0,0,0,0,0,0,0,0,0,0,0,0,0,0,0,0,0,0,0,0,0,0,0,0,0,0,0,0,0,0,0,0,0,0,0,0,0,0,0,0,0,0,0],"id":20,"left_children":[1,3,5,7,9,11,13,15,17,19,21,23,25,27,-1,29,31,33,35,37,39,41,43,45,-1,47,-1,49,51,-1,-1,-1,-1,-1,-1,-1,-1,-1,-1,-1,-1,-1,-1,-1,-1,-1,-1,-1,-1,-1,-1,-1,-1],"loss_changes":[1.0526459E3,8.4118915E2,1.958899E1,4.634406E2,3.644443E2,1.8053123E1,1.1996826E1,5.0836237E2,1.16739075E2,3.3530133E2,1.7005042E2,1.0071289E1,1.3973305E1,1.616211E-1,0E0,1.1873569E2,5.2827454E1,7.335077E1,8.568498E1,1.5206277E2,1.13407745E2,1.4759192E2,7.276135E1,7.886368E0,0E0,8.896886E0,0E0,5.08832E0,1.638794E-1,0E0,0E0,0E0,0E0,0E0,0E0,0E0,0E0,0E0,0E0,0E0,0E0,0E0,0E0,0E0,0E0,0E0,0E0,0E0,0E0,0E0,0E0,0E0,0E0],"parents":[2147483647,0,0,1,1,2,2,3,3,4,4,5,5,6,6,7,7,8,8,9,9,10,10,11,11,12,12,13,13,15,15,16,16,17,17,18,18,19,19,20,20,21,21,22,22,23,23,25,25,27,27,28,28],"right_children":[2,4,6,8,10,12,14,16,18,20,22,24,26,28,-1,30,32,34,36,38,40,42,44,46,-1,48,-1,50,52,-1,-1,-1,-1,-1,-1,-1,-1,-1,-1,-1,-1,-1,-1,-1,-1,-1,-1,-1,-1,-1,-1,-1,-1],"split_conditions":[9E0,1.3768E2,2E0,7E0,2E0,5.8541E2,6E0,1.094E2,2E0,1.177582E4,2.26515E4,2E0,4.4827586E-1,1.1768E2,-4.747682E-2,2E0,4.054878E-1,6E0,4.32E0,5E0,2.4E1,6E0,1.15E2,2.16E0,-4.5538865E-2,4.4642857E-1,-6.2842645E-2,3.030303E-1,6E0,1.9761493E-2,-1.31396605E-2,-3.396601E-2,-6.40954E-2,2.8926406E-2,-5.5381972E-2,1.4822142E-2,-2.7951727E-2,6.7336494E-3,-4.8097674E-2,-7.2374634E-2,-2.1395827E-2,-1.3114559E-2,-8.264934E-2,-5.992639E-2,7.185507E-3,2.8850142E-2,5.1749814E-2,-5.0802868E-2,5.5185743E-2,5.7526328E-2,9.302149E-3,5.75381E-2,3.5519406E-2],"split_indices":[8,4,7,7,8,4,7,4,8,4,4,2,5,4,0,1,11,1,6,1,7,2,7,6,0,5,0,5,2,0,0,0,0,0,0,0,0,0,0,0,0,0,0,0,0,0,0,0,0,0,0,0,0],"split_type":[0,0,0,0,0,0,0,0,0,0,0,0,0,0,0,0,0,0,0,0,0,0,0,0,0,0,0,0,0,0,0,0,0,0,0,0,0,0,0,0,0,0,0,0,0,0,0,0,0,0,0,0,0],"sum_hessian":[2.2890654E4,2.198056E4,9.1009393E2,6.8990005E3,1.5081561E4,1.9787852E2,7.122154E2,1.9367024E3,4.962298E3,5.9228745E3,9.158686E3,1.8296625E2,1.4912279E1,7.101593E2,2.0560963E0,1.289453E3,6.472494E2,2.4816274E3,2.4806707E3,5.1854546E3,7.3742035E2,8.830628E3,3.280581E2,1.8054254E2,2.4237068E0,8.222699E0,6.68958E0,3.133537E1,6.788239E2,8.951429E2,3.943101E2,4.211239E2,2.2612547E2,2.4564417E3,2.518576E1,2.3583782E3,1.2229233E2,5.056756E3,1.2869846E2,1.3259163E2,6.0482874E2,8.754604E3,7.602351E1,2.8115887E2,4.6899227E1,6.208076E1,1.1846178E2,1.8286445E0,6.394055E0,2.3754322E1,7.581048E0,6.721119E2,6.7120643E0],"tree_param":{"num_deleted":"0","num_feature":"13","num_nodes":"53","size_leaf_vector":"1"}},{"base_weights":[1.6585628E-4,-4.148617E-2,1.0354917E0,9.5021315E-2,-3.0411398E-1,7.4708897E-1,1.1153029E0,2.7868783E-1,-5.9003185E-2,-6.944677E-1,-2.465205E-1,8.3091444E-1,-2.72096E-1,1.1226643E0,-4.6525087E-2,-1.9648218E-1,3.562413E-1,-7.390259E-2,-3.060276E-2,-1.3889556E0,-4.841848E-1,2.5203016E-1,-3.0482608E-1,5.8583856E-1,1.0666511E0,5.595732E-1,-6.157763E-2,9.1108185E-1,1.1311022E0,2.4520667E-2,-2.8438035E-2,9.774384E-3,2.9725913E-2,3.6320165E-3,-1.6875524E-2,-7.762964E-2,3.226277E-2,-1.04950415E-2,-6.8094455E-2,-2.20739E-2,2.8431376E-2,-1.3012408E-2,-4.186753E-2,2.1603458E-2,6.408549E-2,2.9273106E-2,5.4941636E-2,-4.9712356E-2,5.4306936E-2,5.6723107E-2,8.934929E-3,5.6723922E-2,3.461357E-2],"categories":[],"categories_nodes":[],"categories_segments":[],"categories_sizes":[],"default_left":[0,0,0,0,0,0,0,0,0,0,0,0,0,0,0,0,0,0,0,0,0,0,0,0,0,0,0,0,0,0,0,0,0,0,0,0,0,0,0,0,0,0,0,0,0,0,0,0,0,0,0,0,0],"id":21,"left_children":[1,3,5,7,9,11,13,15,17,19,21,23,25,27,-1,29,31,-1,33,35,37,39,41,43,45,47,-1,49,51,-1,-1,-1,-1,-1,-1,-1,-1,-1,-1,-1,-1,-1,-1,-1,-1,-1,-1,-1,-1,-1,-1,-1,-1],"loss_changes":[9.8280164E2,7.8548206E2,1.9455078E1,4.0785327E2,1.6829187E2,1.680693E1,1.1411072E1,2.4239526E2,3.1599683E2,1.3994525E2,1.8993408E2,9.749825E0,1.3059528E1,1.9470215E-1,0E0,2.3638312E2,2.1643445E2,0E0,2.4366151E2,7.531656E1,1.7801254E2,1.5052411E2,1.3860687E2,9.104624E0,7.551956E-1,8.437E0,0E0,4.9443893E0,1.864624E-1,0E0,0E0,0E0,0E0,0E0,0E0,0E0,0E0,0E0,0E0,0E0,0E0,0E0,0E0,0E0,0E0,0E0,0E0,0E0,0E0,0E0,0E0,0E0,0E0],"parents":[2147483647,0,0,1,1,2,2,3,3,4,4,5,5,6,6,7,7,8,8,9,9,10,10,11,11,12,12,13,13,15,15,16,16,18,18,19,19,20,20,21,21,22,22,23,23,24,24,25,25,27,27,28,28],"right_children":[2,4,6,8,10,12,14,16,18,20,22,24,26,28,-1,30,32,-1,34,36,38,40,42,44,46,48,-1,50,52,-1,-1,-1,-1,-1,-1,-1,-1,-1,-1,-1,-1,-1,-1,-1,-1,-1,-1,-1,-1,-1,-1,-1,-1],"split_conditions":[9E0,5.9924E2,2E0,1E0,1.1E1,5.8541E2,6E0,4E0,3E0,1.094E1,7.0142E2,2E0,4.4827586E-1,1.1768E2,-4.6525087E-2,1.0501E2,2.34E0,-7.390259E-2,2.0481E2,5E0,1.177582E4,1.7E1,2.319424E4,4.625E-1,1.4E1,4.4642857E-1,-6.157763E-2,3.030303E-1,6E0,2.4520667E-2,-2.8438035E-2,9.774384E-3,2.9725913E-2,3.6320165E-3,-1.6875524E-2,-7.762964E-2,3.226277E-2,-1.04950415E-2,-6.8094455E-2,-2.20739E-2,2.8431376E-2,-1.3012408E-2,-4.186753E-2,2.1603458E-2,6.408549E-2,2.9273106E-2,5.4941636E-2,-4.9712356E-2,5.4306936E-2,5.6723107E-2,8.934929E-3,5.6723922E-2,3.461357E-2],"split_indices":[8,4,7,10,7,4,7,7,7,6,4,0,5,4,0,4,6,0,4,2,4,7,4,3,8,5,0,5,2,0,0,0,0,0,0,0,0,0,0,0,0,0,0,0,0,0,0,0,0,0,0,0,0],"split_type":[0,0,0,0,0,0,0,0,0,0,0,0,0,0,0,0,0,0,0,0,0,0,0,0,0,0,0,0,0,0,0,0,0,0,0,0,0,0,0,0,0,0,0,0,0,0,0,0,0,0,0,0,0],"sum_hessian":[2.2788443E4,2.1908025E4,8.8041833E2,1.4415725E4,7.492301E3,1.9307861E2,6.873397E2,6.5747974E3,7.840927E3,9.618786E2,6.5304224E3,1.7857591E2,1.4502697E1,6.8532495E2,2.0147555E0,9.223047E2,5.6524927E3,1.5284544E2,7.6880815E3,2.2225294E2,7.396257E2,6.834194E2,5.847003E3,8.926238E1,8.931352E1,7.991952E0,6.5107455E0,3.046161E1,6.5486334E2,3.2406015E2,5.982445E2,3.3764143E3,2.2760786E3,5.75341E3,1.9346713E3,2.059246E2,1.6328344E1,5.644678E2,1.7515791E2,2.1408047E2,4.6933887E2,5.3967285E3,4.502745E2,7.4435074E1,1.482731E1,6.8018866E0,8.251164E1,1.7980343E0,6.1939178E0,2.2921461E1,7.54015E0,6.482903E2,6.5730734E0],"tree_param":{"num_deleted":"0","num_feature":"13","num_nodes":"53","size_leaf_vector":"1"}},{"base_weights":[1.6215025E-4,-3.9571833E-2,1.0179763E0,9.713106E-2,-2.793512E-1,7.2723967E-1,1.0994961E0,2.8562823E-1,-5.3141296E-2,-6.692102E-1,-2.1129489E-1,7.730633E-1,-5.0771445E-2,1.10687E0,-4.561341E-2,1.7727178E-1,6.9567966E-1,-7.20651E-2,-2.6447635E-2,-1.1481638E0,-4.247696E-1,2.85728E-1,-2.90935E-1,4.7024283E-1,9.8576665E-1,8.26558E-1,1.1131786E0,2.6176134E-2,-3.9568604E-3,4.476656E-2,1.8417118E-2,3.450658E-3,-1.6215114E-2,-2.476522E-2,-7.048128E-2,-8.486547E-3,-6.687697E-2,-1.9913247E-2,2.7789164E-2,-1.775077E-2,4.236296E-3,2.9697055E-2,-5.9819277E-2,5.603655E-2,3.9165374E-2,1.279562E-2,5.568088E-2,5.58273E-2,3.3729043E-2],"categories":[],"categories_nodes":[],"categories_segments":[],"categories_sizes":[],"default_left":[0,0,0,0,0,0,0,0,0,0,0,0,0,0,0,0,0,0,0,0,0,0,0,0,0,0,0,0,0,0,0,0,0,0,0,0,0,0,0,0,0,0,0,0,0,0,0,0,0],"id":22,"left_children":[1,3,5,7,9,11,13,15,17,19,21,23,-1,25,-1,27,29,-1,31,33,35,37,39,41,43,45,47,-1,-1,-1,-1,-1,-1,-1,-1,-1,-1,-1,-1,-1,-1,-1,-1,-1,-1,-1,-1,-1,-1],"loss_changes":[9.178808E2,7.160282E2,1.9411072E1,3.9410797E2,2.1030786E2,1.5933083E1,1.0860718E1,2.7409314E2,2.8684848E2,1.3747174E2,2.6744293E2,1.1478348E1,0E0,2.506714E-1,0E0,4.3356293E2,8.3952515E1,0E0,2.1603448E2,6.717053E1,1.817653E2,1.7262119E2,1.401824E2,1.6875149E1,2.0730133E0,2.738285E0,1.9885254E-1,0E0,0E0,0E0,0E0,0E0,0E0,0E0,0E0,0E0,0E0,0E0,0E0,0E0,0E0,0E0,0E0,0E0,0E0,0E0,0E0,0E0,0E0],"parents":[2147483647,0,0,1,1,2,2,3,3,4,4,5,5,6,6,7,7,8,8,9,9,10,10,11,11,13,13,15,15,16,16,18,18,19,19,20,20,21,21,22,22,23,23,24,24,25,25,26,26],"right_children":[2,4,6,8,10,12,14,16,18,20,22,24,-1,26,-1,28,30,-1,32,34,36,38,40,42,44,46,48,-1,-1,-1,-1,-1,-1,-1,-1,-1,-1,-1,-1,-1,-1,-1,-1,-1,-1,-1,-1,-1,-1],"split_conditions":[9E0,5.6389E2,2E0,1E0,1.1E1,2E0,6E0,2.76E0,3E0,1.137E1,7.0142E2,1E0,-5.0771445E-2,1.1337E2,-4.561341E-2,1.094E2,5.272E2,-7.20651E-2,2.0481E2,8.96E0,1.177582E4,1.6E1,8.8E1,5.8541E2,2E1,4.4624448E-1,6E0,2.6176134E-2,-3.9568604E-3,4.476656E-2,1.8417118E-2,3.450658E-3,-1.6215114E-2,-2.476522E-2,-7.048128E-2,-8.486547E-3,-6.687697E-2,-1.9913247E-2,2.7789164E-2,-1.775077E-2,4.236296E-3,2.9697055E-2,-5.9819277E-2,5.603655E-2,3.9165374E-2,1.279562E-2,5.568088E-2,5.58273E-2,3.3729043E-2],"split_indices":[8,4,7,10,7,2,7,6,7,6,4,10,0,4,0,4,4,0,4,6,4,7,7,4,8,3,2,0,0,0,0,0,0,0,0,0,0,0,0,0,0,0,0,0,0,0,0,0,0],"split_type":[0,0,0,0,0,0,0,0,0,0,0,0,0,0,0,0,0,0,0,0,0,0,0,0,0,0,0,0,0,0,0,0,0,0,0,0,0,0,0,0,0,0,0,0,0,0,0,0,0],"sum_hessian":[2.2694338E4,2.1842596E4,8.5174207E2,1.3911802E4,7.930794E3,1.8869414E2,6.630479E2,6.170637E3,7.7411646E3,1.1773783E3,6.7534155E3,1.8440167E2,4.292468E0,6.610746E2,1.9733132E0,4.8819976E3,1.2886396E3,1.4505057E2,7.5961143E3,3.9659604E2,7.807822E2,9.323241E2,5.821092E3,7.740826E1,1.06993416E2,1.7456064E1,6.436185E2,2.0766624E3,2.8053352E3,7.993563E2,4.8928333E2,5.7530586E3,1.8430555E3,1.1423932E2,2.8235672E2,6.111935E2,1.6958873E2,2.637716E2,6.685524E2,4.972872E3,8.4821936E2,7.265908E1,4.7491765E0,6.1476234E1,4.5517185E1,6.475304E0,1.0980761E1,6.3718066E2,6.4378695E0],"tree_param":{"num_deleted":"0","num_feature":"13","num_nodes":"49","size_leaf_vector":"1"}},{"base_weights":[1.673626E-4,-3.7730355E-2,1.0010611E0,2.220203E-1,-1.5615875E-1,7.079177E-1,1.0843071E0,-1.7371537E-1,3.7567803E-1,2.3298142E-2,-2.723796E-1,7.5267553E-1,-4.9972888E-2,1.091697E0,-4.47386E-2,1.6332528E-1,-8.5446674E-1,5.219589E-1,2.3072226E-1,1.04184076E-1,-5.585992E-1,-3.414766E-1,-1.4587405E-2,4.534919E-1,9.6566653E-1,8.730129E-1,1.1005759E0,1.7689826E-2,-1.3349076E-2,-3.2289486E-2,-6.223914E-2,2.6947325E-2,-5.259337E-2,1.3389257E-2,-3.0334279E-2,6.4944946E-3,-4.5184206E-2,-6.955291E-2,-1.9086171E-2,-8.95128E-3,-2.4621578E-2,-3.6265213E-2,5.6303903E-3,2.866747E-2,-5.857844E-2,5.513702E-2,3.811705E-2,5.5373378E-2,6.5728547E-3,5.5205982E-2,3.286471E-2],"categories":[],"categories_nodes":[],"categories_segments":[],"categories_sizes":[],"default_left":[0,0,0,0,0,0,0,0,0,0,0,0,0,0,0,0,0,0,0,0,0,0,0,0,0,0,0,0,0,0,0,0,0,0,0,0,0,0,0,0,0,0,0,0,0,0,0,0,0,0,0],"id":23,"left_children":[1,3,5,7,9,11,13,15,17,19,21,23,-1,25,-1,27,29,31,33,35,37,39,41,43,45,47,49,-1,-1,-1,-1,-1,-1,-1,-1,-1,-1,-1,-1,-1,-1,-1,-1,-1,-1,-1,-1,-1,-1,-1,-1],"loss_changes":[8.574189E2,6.700183E2,1.9356628E1,4.1482437E2,3.1201898E2,1.4910431E1,1.0342773E1,4.3799805E2,1.0406555E2,2.7686758E2,1.6172931E2,1.1102959E1,0E0,2.7886963E-1,0E0,1.0477974E2,5.0681946E1,6.5928894E1,7.6813644E1,1.3391306E2,1.05172455E2,1.7550574E2,1.736759E2,1.570855E1,2.0831985E0,5.026375E0,2.3199463E-1,0E0,0E0,0E0,0E0,0E0,0E0,0E0,0E0,0E0,0E0,0E0,0E0,0E0,0E0,0E0,0E0,0E0,0E0,0E0,0E0,0E0,0E0,0E0,0E0],"parents":[2147483647,0,0,1,1,2,2,3,3,4,4,5,5,6,6,7,7,8,8,9,9,10,10,11,11,13,13,15,15,16,16,17,17,18,18,19,19,20,20,21,21,22,22,23,23,24,24,25,25,26,26],"right_children":[2,4,6,8,10,12,14,16,18,20,22,24,-1,26,-1,28,30,32,34,36,38,40,42,44,46,48,50,-1,-1,-1,-1,-1,-1,-1,-1,-1,-1,-1,-1,-1,-1,-1,-1,-1,-1,-1,-1,-1,-1,-1,-1],"split_conditions":[9E0,1.3768E2,2E0,7E0,2E0,2E0,6E0,1.094E2,2E0,1.177582E4,2E0,1E0,-4.9972888E-2,1.1768E2,-4.47386E-2,2E0,4.054878E-1,6E0,4.44E0,5E0,2.4E1,2.7E1,1.5E1,5.8541E2,2E1,3.030303E-1,6E0,1.7689826E-2,-1.3349076E-2,-3.2289486E-2,-6.223914E-2,2.6947325E-2,-5.259337E-2,1.3389257E-2,-3.0334279E-2,6.4944946E-3,-4.5184206E-2,-6.955291E-2,-1.9086171E-2,-8.95128E-3,-2.4621578E-2,-3.6265213E-2,5.6303903E-3,2.866747E-2,-5.857844E-2,5.513702E-2,3.811705E-2,5.5373378E-2,6.5728547E-3,5.5205982E-2,3.286471E-2],"split_indices":[8,4,7,7,8,2,7,4,8,4,0,10,0,4,0,1,11,1,6,1,7,7,7,4,8,5,2,0,0,0,0,0,0,0,0,0,0,0,0,0,0,0,0,0,0,0,0,0,0,0,0],"split_type":[0,0,0,0,0,0,0,0,0,0,0,0,0,0,0,0,0,0,0,0,0,0,0,0,0,0,0,0,0,0,0,0,0,0,0,0,0,0,0,0,0,0,0,0,0,0,0,0,0,0,0],"sum_hessian":[2.2602354E4,2.1778691E4,8.236633E2,6.819817E3,1.4958874E4,1.8427138E2,6.3939197E2,1.9073718E3,4.912445E3,5.8801387E3,9.078735E3,1.8010909E2,4.162297E0,6.3746E2,1.9319105E0,1.2762562E3,6.311156E2,2.4437527E3,2.4686921E3,5.1632485E3,7.1689014E2,7.1594404E3,1.919295E3,7.620075E1,1.0390833E2,2.874763E1,6.087124E2,8.8479004E2,3.9146613E2,4.1297748E2,2.181381E2,2.4183074E3,2.5445309E1,2.3647126E3,1.0397969E2,5.0356836E3,1.2756462E2,1.2442486E2,5.9246533E2,3.4494656E3,3.7099746E3,2.9063556E2,1.6286594E3,7.156929E1,4.631462E0,5.9423733E1,4.44846E1,2.1467045E1,7.280585E0,6.0240594E2,6.3064957E0],"tree_param":{"num_deleted":"0","num_feature":"13","num_nodes":"51","size_leaf_vector":"1"}},{"base_weights":[1.6448983E-4,-3.5994165E-2,9.846712E-1,2.1209913E-1,-1.4871952E-1,6.890767E-1,1.0697209E0,-2.3264156E-1,3.37173E-1,2.2110473E-2,-2.5949267E-1,7.3279595E-1,-4.9203478E-2,1.0771304E0,-4.389778E-2,2.6457919E-2,-1.023847E0,4.8063183E-1,1.9509996E-1,9.896887E-2,-5.370587E-1,-2.3514156E-1,-9.4703305E-1,4.3724182E-1,9.4610834E-1,7.858003E-1,1.0838075E0,-2.4730511E-2,9.728667E-3,-5.5410057E-2,4.1345518E-2,3.2984357E-2,1.5672518E-2,8.498855E-3,5.744663E-2,-1.7117193E-2,7.7705006E-3,-6.8222664E-2,-1.8267855E-2,-1.1175298E-2,-7.920899E-2,-5.738305E-2,1.0003296E-2,2.766766E-2,-5.7402667E-2,5.4274525E-2,3.7090108E-2,1.0575625E-2,5.4299433E-2,5.4367434E-2,3.201958E-2],"categories":[],"categories_nodes":[],"categories_segments":[],"categories_sizes":[],"default_left":[0,0,0,0,0,0,0,0,0,0,0,0,0,0,0,0,0,0,0,0,0,0,0,0,0,0,0,0,0,0,0,0,0,0,0,0,0,0,0,0,0,0,0,0,0,0,0,0,0,0,0],"id":24,"left_children":[1,3,5,7,9,11,13,15,17,19,21,23,-1,25,-1,27,29,31,33,35,37,39,41,43,45,47,49,-1,-1,-1,-1,-1,-1,-1,-1,-1,-1,-1,-1,-1,-1,-1,-1,-1,-1,-1,-1,-1,-1,-1,-1],"loss_changes":[8.011869E2,6.0715204E2,1.9307617E1,3.773645E2,2.8248077E2,1.3958115E1,9.855103E0,3.0534955E2,1.07811646E2,2.524484E2,1.5138751E2,1.0740639E1,0E0,3.4558105E-1,0E0,9.846474E1,5.8280457E1,7.862903E1,6.3585938E1,1.2867871E2,1.0034412E2,1.3694754E2,7.144031E1,1.4629215E1,2.0965576E0,2.7745657E0,2.442627E-1,0E0,0E0,0E0,0E0,0E0,0E0,0E0,0E0,0E0,0E0,0E0,0E0,0E0,0E0,0E0,0E0,0E0,0E0,0E0,0E0,0E0,0E0,0E0,0E0],"parents":[2147483647,0,0,1,1,2,2,3,3,4,4,5,5,6,6,7,7,8,8,9,9,10,10,11,11,13,13,15,15,16,16,17,17,18,18,19,19,20,20,21,21,22,22,23,23,24,24,25,25,26,26],"right_children":[2,4,6,8,10,12,14,16,18,20,22,24,-1,26,-1,28,30,32,34,36,38,40,42,44,46,48,50,-1,-1,-1,-1,-1,-1,-1,-1,-1,-1,-1,-1,-1,-1,-1,-1,-1,-1,-1,-1,-1,-1,-1,-1],"split_conditions":[9E0,1.3768E2,2E0,6E0,2E0,2E0,6E0,1.1266E2,2E0,1.177582E4,2.26515E4,1E0,-4.9203478E-2,1.1337E2,-4.389778E-2,1.935E0,5E0,1.0879E2,5E0,9E0,2.4E1,6E0,1.15E2,5.8541E2,2E1,4.4624448E-1,6E0,-2.4730511E-2,9.728667E-3,-5.5410057E-2,4.1345518E-2,3.2984357E-2,1.5672518E-2,8.498855E-3,5.744663E-2,-1.7117193E-2,7.7705006E-3,-6.8222664E-2,-1.8267855E-2,-1.1175298E-2,-7.920899E-2,-5.738305E-2,1.0003296E-2,2.766766E-2,-5.7402667E-2,5.4274525E-2,3.7090108E-2,1.0575625E-2,5.4299433E-2,5.4367434E-2,3.201958E-2],"split_indices":[8,4,7,7,8,2,7,4,8,4,4,10,0,4,0,6,8,4,2,7,7,2,7,4,8,3,2,0,0,0,0,0,0,0,0,0,0,0,0,0,0,0,0,0,0,0,0,0,0,0,0],"split_type":[0,0,0,0,0,0,0,0,0,0,0,0,0,0,0,0,0,0,0,0,0,0,0,0,0,0,0,0,0,0,0,0,0,0,0,0,0,0,0,0,0,0,0,0,0,0,0,0,0,0,0],"sum_hessian":[2.2504242E4,2.1707924E4,7.963184E2,6.781617E3,1.4926307E4,1.7996011E2,6.1635834E2,1.4883711E3,5.293246E3,5.871819E3,9.054487E3,1.7592523E2,4.03489E0,6.1446765E2,1.8906708E0,1.1219333E3,3.664378E2,2.6325923E3,2.6606536E3,5.1629844E3,7.0883466E2,8.746064E3,3.0842343E2,7.502476E1,1.00900475E2,1.6426697E1,5.9804095E2,2.7320413E2,8.487292E2,3.50848E2,1.5589799E1,1.2697329E3,1.3628595E3,2.5935215E3,6.713221E1,5.848649E2,4.578119E3,1.206243E2,5.882104E2,8.67243E3,7.3635E1,2.6250992E2,4.5913532E1,7.051127E1,4.5134935E0,5.7416573E1,4.3483902E1,6.224074E0,1.0202623E1,5.91862E2,6.178973E0],"tree_param":{"num_deleted":"0","num_feature":"13","num_nodes":"51","size_leaf_vector":"1"}},{"base_weights":[1.6495804E-4,-3.4331594E-2,9.687035E-1,8.707679E-2,-2.4808243E-1,6.7067707E-1,1.0556138E0,2.630908E-1,-5.203946E-2,-6.236749E-1,-1.829347E-1,7.133826E-1,-4.8460625E-2,1.0630459E0,-4.3088395E-2,1.547577E-1,6.6925895E-1,-7.028971E-2,-2.7137743E-2,-1.0931771E0,-3.840301E-1,2.761153E-1,-2.5734636E-1,4.214703E-1,9.270304E-1,7.691552E-1,1.0698664E0,2.3792028E-2,-3.987768E-3,4.3035537E-2,1.7822629E-2,2.6292047E-3,-1.6182551E-2,-2.3029292E-2,-6.7513146E-2,-5.5673807E-3,-5.9624095E-2,1.909012E-2,-6.4125486E-2,-1.5993042E-2,5.3908066E-3,2.6696473E-2,-5.6285806E-2,5.3444933E-2,3.6083184E-2,1.018222E-2,5.365494E-2,5.3675156E-2,3.1192783E-2],"categories":[],"categories_nodes":[],"categories_segments":[],"categories_sizes":[],"default_left":[0,0,0,0,0,0,0,0,0,0,0,0,0,0,0,0,0,0,0,0,0,0,0,0,0,0,0,0,0,0,0,0,0,0,0,0,0,0,0,0,0,0,0,0,0,0,0,0,0],"id":25,"left_children":[1,3,5,7,9,11,13,15,17,19,21,23,-1,25,-1,27,29,-1,31,33,35,37,39,41,43,45,47,-1,-1,-1,-1,-1,-1,-1,-1,-1,-1,-1,-1,-1,-1,-1,-1,-1,-1,-1,-1,-1,-1],"loss_changes":[7.487839E2,5.616141E2,1.9256165E1,3.379772E2,1.917055E2,1.3070663E1,9.3949585E0,2.680054E2,2.5986896E2,1.2990988E2,2.283174E2,1.038958E1,0E0,3.661499E-1,0E0,3.6233542E2,7.650928E1,0E0,1.7900041E2,6.2950592E1,1.6927078E2,1.54103E2,1.313046E2,1.3630037E1,2.1122055E0,2.705452E0,2.6641846E-1,0E0,0E0,0E0,0E0,0E0,0E0,0E0,0E0,0E0,0E0,0E0,0E0,0E0,0E0,0E0,0E0,0E0,0E0,0E0,0E0,0E0,0E0],"parents":[2147483647,0,0,1,1,2,2,3,3,4,4,5,5,6,6,7,7,8,8,9,9,10,10,11,11,13,13,15,15,16,16,18,18,19,19,20,20,21,21,22,22,23,23,24,24,25,25,26,26],"right_children":[2,4,6,8,10,12,14,16,18,20,22,24,-1,26,-1,28,30,-1,32,34,36,38,40,42,44,46,48,-1,-1,-1,-1,-1,-1,-1,-1,-1,-1,-1,-1,-1,-1,-1,-1,-1,-1,-1,-1,-1,-1],"split_conditions":[9E0,5.6389E2,2E0,1E0,1.1E1,2E0,6E0,2.76E0,3E0,1.137E1,7.0142E2,1E0,-4.8460625E-2,1.1337E2,-4.3088395E-2,1.094E2,5.272E2,-7.028971E-2,2.1319E2,8.96E0,1.147326E4,3.7E1,8.8E1,5.8541E2,2E1,4.4624448E-1,6E0,2.3792028E-2,-3.987768E-3,4.3035537E-2,1.7822629E-2,2.6292047E-3,-1.6182551E-2,-2.3029292E-2,-6.7513146E-2,-5.5673807E-3,-5.9624095E-2,1.909012E-2,-6.4125486E-2,-1.5993042E-2,5.3908066E-3,2.6696473E-2,-5.6285806E-2,5.3444933E-2,3.6083184E-2,1.018222E-2,5.365494E-2,5.3675156E-2,3.1192783E-2],"split_indices":[8,4,7,10,7,2,7,6,7,6,4,10,0,4,0,4,4,0,4,6,4,7,7,4,8,3,2,0,0,0,0,0,0,0,0,0,0,0,0,0,0,0,0,0,0,0,0,0,0],"split_type":[0,0,0,0,0,0,0,0,0,0,0,0,0,0,0,0,0,0,0,0,0,0,0,0,0,0,0,0,0,0,0,0,0,0,0,0,0,0,0,0,0,0,0,0,0,0,0,0,0],"sum_hessian":[2.2409143E4,2.1639375E4,7.697677E2,1.3801086E4,7.8382896E3,1.7576471E2,5.940029E2,6.0921836E3,7.7089023E3,1.1573444E3,6.680945E3,1.7185432E2,3.9103978E0,5.9215326E2,1.8497022E0,4.810507E3,1.2816766E3,1.3823895E2,7.5706636E3,3.899023E2,7.674421E2,9.3153546E2,5.7494097E3,7.388126E1,9.797306E1,1.601144E1,5.761418E2,2.030046E3,2.780461E3,7.939757E2,4.8770093E2,5.967136E3,1.6035273E3,1.1347491E2,2.764274E2,5.7472943E2,1.9271262E2,8.730882E2,5.844724E1,4.9091113E3,8.402981E2,6.948553E1,4.3957376E0,5.5457752E1,4.2515305E1,6.1810737E0,9.830366E0,5.700865E2,6.0552974E0],"tree_param":{"num_deleted":"0","num_feature":"13","num_nodes":"49","size_leaf_vector":"1"}},{"base_weights":[1.6530613E-4,-3.273591E-2,9.531262E-1,1.970265E-1,-1.3679886E-1,6.526841E-1,1.0419595E0,-1.7153676E-1,3.393574E-1,2.3543121E-2,-2.4091004E-1,7.2885144E-1,-2.6959926E-1,1.0494169E0,-4.2308133E-2,1.3523431E-1,-8.081836E-1,4.695737E-1,1.8825814E-1,9.505325E-2,-5.048635E-1,-2.1734841E-1,-9.22622E-1,4.872329E-1,9.785384E-1,5.103757E-1,-5.771939E-2,8.18077E-1,1.0590923E0,1.582339E-2,-1.3591478E-2,-4.4653866E-2,1.067179E-2,1.385153E-2,3.419169E-2,6.6462564E-3,3.4533672E-2,-1.661848E-2,7.479958E-3,-6.654444E-2,-1.6998384E-2,-4.7615204E-2,-9.791135E-3,-5.621606E-2,9.191765E-3,1.6349277E-2,6.093811E-2,2.2001758E-2,5.0804693E-2,-4.753716E-2,5.1261753E-2,5.3641606E-2,2.3273465E-3,5.3146716E-2,3.0383557E-2],"categories":[],"categories_nodes":[],"categories_segments":[],"categories_sizes":[],"default_left":[0,0,0,0,0,0,0,0,0,0,0,0,0,0,0,0,0,0,0,0,0,0,0,0,0,0,0,0,0,0,0,0,0,0,0,0,0,0,0,0,0,0,0,0,0,0,0,0,0,0,0,0,0,0,0],"id":26,"left_children":[1,3,5,7,9,11,13,15,17,19,21,23,25,27,-1,29,31,33,35,37,39,41,43,45,47,49,-1,51,53,-1,-1,-1,-1,-1,-1,-1,-1,-1,-1,-1,-1,-1,-1,-1,-1,-1,-1,-1,-1,-1,-1,-1,-1,-1,-1],"loss_changes":[6.999242E2,5.1596576E2,1.9203735E1,3.5294675E2,2.4794452E2,1.2327492E1,8.96051E0,3.662613E2,9.54032E1,2.2102747E2,1.4444629E2,9.162872E0,1.0184233E1,4.1271973E-1,0E0,9.348407E1,5.3074707E1,1.0732416E2,6.2408005E1,1.20161125E2,9.451929E1,1.3754398E2,6.727911E1,9.354195E0,1.1220169E0,7.0552764E0,0E0,5.323206E0,2.9962158E-1,0E0,0E0,0E0,0E0,0E0,0E0,0E0,0E0,0E0,0E0,0E0,0E0,0E0,0E0,0E0,0E0,0E0,0E0,0E0,0E0,0E0,0E0,0E0,0E0,0E0,0E0],"parents":[2147483647,0,0,1,1,2,2,3,3,4,4,5,5,6,6,7,7,8,8,9,9,10,10,11,11,12,12,13,13,15,15,16,16,17,17,18,18,19,19,20,20,21,21,22,22,23,23,24,24,25,25,27,27,28,28],"right_children":[2,4,6,8,10,12,14,16,18,20,22,24,26,28,-1,30,32,34,36,38,40,42,44,46,48,50,-1,52,54,-1,-1,-1,-1,-1,-1,-1,-1,-1,-1,-1,-1,-1,-1,-1,-1,-1,-1,-1,-1,-1,-1,-1,-1,-1,-1],"split_conditions":[9E0,1.3768E2,2E0,7E0,2E0,5.8541E2,6E0,1.094E2,1E0,1.177582E4,2.26515E4,2E0,4.4827586E-1,1.1768E2,-4.2308133E-2,2E0,4E0,1.2E1,3.8E1,9E0,2.4E1,1.805E0,1.15E2,4.625E-1,1.4E1,4.4642857E-1,-5.771939E-2,3.030303E-1,6E0,1.582339E-2,-1.3591478E-2,-4.4653866E-2,1.067179E-2,1.385153E-2,3.419169E-2,6.6462564E-3,3.4533672E-2,-1.661848E-2,7.479958E-3,-6.654444E-2,-1.6998384E-2,-4.7615204E-2,-9.791135E-3,-5.621606E-2,9.191765E-3,1.6349277E-2,6.093811E-2,2.2001758E-2,5.0804693E-2,-4.753716E-2,5.1261753E-2,5.3641606E-2,2.3273465E-3,5.3146716E-2,3.0383557E-2],"split_indices":[8,4,7,7,8,4,7,4,10,4,4,0,5,4,0,1,2,7,7,7,7,6,7,3,8,5,0,5,2,0,0,0,0,0,0,0,0,0,0,0,0,0,0,0,0,0,0,0,0,0,0,0,0,0,0],"split_type":[0,0,0,0,0,0,0,0,0,0,0,0,0,0,0,0,0,0,0,0,0,0,0,0,0,0,0,0,0,0,0,0,0,0,0,0,0,0,0,0,0,0,0,0,0,0,0,0,0,0,0,0,0,0,0],"sum_hessian":[2.2321592E4,2.1577586E4,7.4400604E2,6.7260747E3,1.4851512E4,1.7168832E2,5.723177E2,1.8737719E3,4.8523027E3,5.847118E3,9.004394E3,1.5878471E2,1.2903609E1,5.705086E2,1.809099E0,1.2650093E3,6.0876263E2,2.6051206E3,2.2471821E3,5.150864E3,6.9625464E2,8.704852E3,2.9954205E2,8.219608E1,7.658863E1,7.0829153E0,5.8206935E0,2.633712E1,5.441715E2,8.754589E2,3.8955032E2,5.6217346E2,4.65892E1,1.3733046E3,1.2318162E3,2.0253832E3,2.2179904E2,5.823628E2,4.568501E3,1.1468469E2,5.8156995E2,2.4646658E2,8.458385E3,2.5334328E2,4.619879E1,6.861288E1,1.3583209E1,5.8221717E0,7.0766464E1,1.6249276E0,5.457988E0,1.9505865E1,6.831256E0,5.38236E2,5.9354544E0],"tree_param":{"num_deleted":"0","num_feature":"13","num_nodes":"55","size_leaf_vector":"1"}},{"base_weights":[1.7115816E-4,-3.1220464E-2,9.3789583E-1,7.581097E-2,-2.3929973E-1,6.352179E-1,1.0287278E0,2.2960716E-1,-5.100501E-2,-5.902175E-1,-1.8889622E-1,6.7702353E-1,-4.759798E-2,1.0362134E0,-4.1554917E-2,-2.0043777E-1,2.9983455E-1,-6.9086045E-2,-2.7127938E-2,-1.2733719E0,-3.8928092E-1,-1.4945921E-1,-7.535241E-1,3.917319E-1,8.919878E-1,7.300954E-1,1.0434637E0,2.0476352E-2,-2.6791228E-2,7.147907E-3,2.6545545E-2,2.5223338E-3,-1.5018399E-2,-7.223828E-2,3.754944E-2,-7.3452936E-3,-6.373378E-2,-1.02611175E-2,1.7083017E-2,7.10072E-3,-4.7980104E-2,5.059979E-2,6.090908E-3,5.1994413E-2,3.4050424E-2,8.087052E-3,5.2432787E-2,5.2365433E-2,2.9591266E-2],"categories":[],"categories_nodes":[],"categories_segments":[],"categories_sizes":[],"default_left":[0,0,0,0,0,0,0,0,0,0,0,0,0,0,0,0,0,0,0,0,0,0,0,0,0,0,0,0,0,0,0,0,0,0,0,0,0,0,0,0,0,0,0,0,0,0,0,0,0],"id":27,"left_children":[1,3,5,7,9,11,13,15,17,19,21,23,-1,25,-1,27,29,-1,31,33,35,37,39,41,43,45,47,-1,-1,-1,-1,-1,-1,-1,-1,-1,-1,-1,-1,-1,-1,-1,-1,-1,-1,-1,-1,-1,-1],"loss_changes":[6.544305E2,4.7910486E2,1.914502E1,2.770772E2,1.2913019E2,1.184745E1,8.550171E0,1.9395343E2,2.4737065E2,1.25414276E2,1.4219101E2,9.775162E0,0E0,4.60083E-1,0E0,1.8471335E2,1.9999991E2,0E0,1.6217601E2,7.326361E1,1.5222174E2,1.636965E2,7.708974E1,1.2051962E1,2.2052155E0,2.7394447E0,3.0993652E-1,0E0,0E0,0E0,0E0,0E0,0E0,0E0,0E0,0E0,0E0,0E0,0E0,0E0,0E0,0E0,0E0,0E0,0E0,0E0,0E0,0E0,0E0],"parents":[2147483647,0,0,1,1,2,2,3,3,4,4,5,5,6,6,7,7,8,8,9,9,10,10,11,11,13,13,15,15,16,16,18,18,19,19,20,20,21,21,22,22,23,23,24,24,25,25,26,26],"right_children":[2,4,6,8,10,12,14,16,18,20,22,24,-1,26,-1,28,30,-1,32,34,36,38,40,42,44,46,48,-1,-1,-1,-1,-1,-1,-1,-1,-1,-1,-1,-1,-1,-1,-1,-1,-1,-1,-1,-1,-1,-1],"split_conditions":[9E0,5.9924E2,2E0,1E0,1.1E1,2E0,6E0,4E0,3E0,1.094E1,2.319424E4,1E0,-4.759798E-2,1.1337E2,-4.1554917E-2,1.0501E2,2.34E0,-6.9086045E-2,2.1319E2,5E0,1.177582E4,8.8E1,1.7499E2,1.0501E2,2E1,4.4624448E-1,6E0,2.0476352E-2,-2.6791228E-2,7.147907E-3,2.6545545E-2,2.5223338E-3,-1.5018399E-2,-7.223828E-2,3.754944E-2,-7.3452936E-3,-6.373378E-2,-1.02611175E-2,1.7083017E-2,7.10072E-3,-4.7980104E-2,5.059979E-2,6.090908E-3,5.1994413E-2,3.4050424E-2,8.087052E-3,5.2432787E-2,5.2365433E-2,2.9591266E-2],"split_indices":[8,4,7,10,7,2,7,7,7,6,4,10,0,4,0,4,6,0,4,2,4,7,6,4,8,3,2,0,0,0,0,0,0,0,0,0,0,0,0,0,0,0,0,0,0,0,0,0,0],"split_type":[0,0,0,0,0,0,0,0,0,0,0,0,0,0,0,0,0,0,0,0,0,0,0,0,0,0,0,0,0,0,0,0,0,0,0,0,0,0,0,0,0,0,0,0,0,0,0,0,0],"sum_hessian":[2.2229795E4,2.1510664E4,7.191323E2,1.4204708E4,7.3059556E3,1.6783878E2,5.512935E2,6.4191123E3,7.785595E3,9.1623846E2,6.3897173E3,1.6409015E2,3.748628E0,5.495246E2,1.7689428E0,9.0084375E2,5.5182686E3,1.3623233E2,7.6493633E3,2.0703003E2,7.0920844E2,5.9737397E3,4.1597726E2,7.1723724E1,9.236642E1,1.5067238E1,5.3445734E2,3.195181E2,5.813256E2,3.287811E3,2.2304573E3,5.958517E3,1.6908461E3,1.9113388E2,1.5896148E1,5.57704E2,1.5150444E2,5.3651475E3,6.085922E2,7.787447E1,3.381028E2,2.0913956E1,5.080977E1,5.199094E1,4.037548E1,5.953364E0,9.1138735E0,5.2863794E2,5.819413E0],"tree_param":{"num_deleted":"0","num_feature":"13","num_nodes":"49","size_leaf_vector":"1"}},{"base_weights":[1.6026109E-4,-2.978732E-2,9.2265326E-1,2.5996274E-1,-1.02948606E-1,6.1730146E-1,1.0158167E0,-2.6136777E-1,3.5629594E-1,4.4787407E-2,-1.9942951E-1,6.920563E-1,-2.8377065E-1,1.0233326E0,-4.0826876E-2,-2.8696492E-2,-1.3067782E0,4.7220707E-1,1.11087374E-1,-4.30881E-1,1.2830481E-1,-1.8779515E0,-1.8910895E-1,4.5513597E-1,9.459408E-1,4.8141053E-1,-5.684362E-2,7.8343076E-1,1.033585E0,1.948452E-2,-3.0553648E-2,-5.4593828E-2,-8.256741E-2,2.5858447E-2,-4.692835E-3,8.179264E-3,-7.5956225E-2,-5.6426432E-2,-9.319813E-3,9.657889E-3,-2.5050426E-2,-5.9724033E-2,-9.7075626E-2,-8.4628565E-3,-4.411357E-2,1.5075614E-2,5.916601E-2,1.9740226E-2,4.9269855E-2,-4.694679E-2,5.007574E-2,5.2548736E-2,2.5658376E-4,5.1882725E-2,2.8815312E-2],"categories":[],"categories_nodes":[],"categories_segments":[],"categories_sizes":[],"default_left":[0,0,0,0,0,0,0,0,0,0,0,0,0,0,0,0,0,0,0,0,0,0,0,0,0,0,0,0,0,0,0,0,0,0,0,0,0,0,0,0,0,0,0,0,0,0,0,0,0,0,0,0,0,0,0],"id":28,"left_children":[1,3,5,7,9,11,13,15,17,19,21,23,25,27,-1,29,31,33,35,37,39,41,43,45,47,49,-1,51,53,-1,-1,-1,-1,-1,-1,-1,-1,-1,-1,-1,-1,-1,-1,-1,-1,-1,-1,-1,-1,-1,-1,-1,-1,-1,-1],"loss_changes":[6.117785E2,4.5470007E2,1.9180786E1,2.172597E2,2.441066E2,1.1332668E1,8.161743E0,1.6414568E2,1.0369467E2,2.688589E2,1.7911176E2,8.7696E0,9.277736E0,4.944458E-1,0E0,1.3501416E2,7.2944336E0,6.312329E1,1.0063139E2,1.7219911E2,2.3503677E2,4.2633057E-1,1.4155225E2,8.709606E0,1.1963425E0,6.6676974E0,0E0,5.380082E0,3.425293E-1,0E0,0E0,0E0,0E0,0E0,0E0,0E0,0E0,0E0,0E0,0E0,0E0,0E0,0E0,0E0,0E0,0E0,0E0,0E0,0E0,0E0,0E0,0E0,0E0,0E0,0E0],"parents":[2147483647,0,0,1,1,2,2,3,3,4,4,5,5,6,6,7,7,8,8,9,9,10,10,11,11,12,12,13,13,15,15,16,16,17,17,18,18,19,19,20,20,21,21,22,22,23,23,24,24,25,25,27,27,28,28],"right_children":[2,4,6,8,10,12,14,16,18,20,22,24,26,28,-1,30,32,34,36,38,40,42,44,46,48,50,-1,52,54,-1,-1,-1,-1,-1,-1,-1,-1,-1,-1,-1,-1,-1,-1,-1,-1,-1,-1,-1,-1,-1,-1,-1,-1,-1,-1],"split_conditions":[9E0,1.1768E2,2E0,4E0,2E0,5.8541E2,6E0,2.48E0,2E0,1.1E1,1.61E0,2E0,4.4827586E-1,1.1768E2,-4.0826876E-2,1.0501E2,3E0,2.2E1,4.888889E-2,4.5236E2,1.358859E4,7E0,2.26515E4,4.625E-1,1.4E1,4.4642857E-1,-5.684362E-2,3.030303E-1,6E0,1.948452E-2,-3.0553648E-2,-5.4593828E-2,-8.256741E-2,2.5858447E-2,-4.692835E-3,8.179264E-3,-7.5956225E-2,-5.6426432E-2,-9.319813E-3,9.657889E-3,-2.5050426E-2,-5.9724033E-2,-9.7075626E-2,-8.4628565E-3,-4.411357E-2,1.5075614E-2,5.916601E-2,1.9740226E-2,4.9269855E-2,-4.694679E-2,5.007574E-2,5.2548736E-2,2.5658376E-4,5.1882725E-2,2.8815312E-2],"split_indices":[8,4,7,7,8,4,7,6,1,7,6,0,5,4,0,4,7,7,11,4,4,7,4,3,8,5,0,5,2,0,0,0,0,0,0,0,0,0,0,0,0,0,0,0,0,0,0,0,0,0,0,0,0,0,0],"split_type":[0,0,0,0,0,0,0,0,0,0,0,0,0,0,0,0,0,0,0,0,0,0,0,0,0,0,0,0,0,0,0,0,0,0,0,0,0,0,0,0,0,0,0,0,0,0,0,0,0,0,0,0,0,0,0],"sum_hessian":[2.2142682E4,2.1447387E4,6.952948E2,4.3231816E3,1.7124205E4,1.6432626E2,5.3096857E2,6.739927E2,3.6491887E3,6.76534E3,1.0358864E4,1.5195198E2,1.23742895E1,5.2923926E2,1.7293034E0,5.521346E2,1.2185812E2,2.4772544E3,1.1719344E3,1.00981866E3,5.7555215E3,6.2197422E1,1.0296667E4,8.004663E1,7.190535E1,6.752972E0,5.621318E0,2.4863203E1,5.0437607E2,3.2149747E2,2.3063713E2,7.761804E1,4.4240078E1,2.2950474E3,1.822069E2,1.1362435E3,3.5690918E1,2.611111E2,7.487076E2,5.218436E3,5.3708527E2,6.9761057E0,5.5221317E1,1.0011195E4,2.854717E2,6.726906E1,1.277757E1,5.5391474E0,6.63662E1,1.5941751E0,5.158797E0,1.824206E1,6.6211424E0,4.986689E2,5.70713E0],"tree_param":{"num_deleted":"0","num_feature":"13","num_nodes":"55","size_leaf_vector":"1"}},{"base_weights":[1.5778809E-4,-2.8396793E-2,9.08E-1,6.2328205E-2,-2.4482721E-1,6.0062593E-1,1.0032372E0,3.1597617E-1,2.0575272E-3,-8.813387E-1,-2.1014717E-1,6.414581E-1,-4.678137E-2,1.0107859E0,-4.0122315E-2,2.3502776E-2,4.4242045E-1,-3.0136463E-1,7.7289656E-2,-1.1558138E0,2.3705007E-1,-1.9290353E-1,-7.63177E-2,3.6342043E-1,8.582978E-1,6.9186306E-1,1.0185043E0,1.940549E-2,-1.1264756E-2,3.8160298E-2,1.32099185E-2,-2.511409E-2,5.854002E-3,2.3145196E-5,1.9501066E-2,-6.384286E-2,-5.458889E-3,-6.912942E-2,9.1314815E-2,-1.2359055E-2,7.2993734E-3,5.7304915E-2,7.867834E-3,5.0632317E-2,3.2077845E-2,6.081594E-3,5.129313E-2,5.1128913E-2,2.805521E-2],"categories":[],"categories_nodes":[],"categories_segments":[],"categories_sizes":[],"default_left":[0,0,0,0,0,0,0,0,0,0,0,0,0,0,0,0,0,0,0,0,0,0,0,0,0,0,0,0,0,0,0,0,0,0,0,0,0,0,0,0,0,0,0,0,0,0,0,0,0],"id":29,"left_children":[1,3,5,7,9,11,13,15,17,19,21,23,-1,25,-1,27,29,31,33,35,37,39,-1,41,43,45,47,-1,-1,-1,-1,-1,-1,-1,-1,-1,-1,-1,-1,-1,-1,-1,-1,-1,-1,-1,-1,-1,-1],"loss_changes":[5.721132E2,4.20153E2,1.9098328E1,2.3049725E2,1.3932785E2,1.0742615E1,7.7941895E0,1.0704361E2,2.781421E2,1.0042178E2,1.3576776E2,9.219574E0,0E0,5.5218506E-1,0E0,7.944426E1,1.1534024E2,2.0359036E2,2.3458675E2,3.306903E1,1.7014238E2,1.08902954E2,0E0,1.1271717E1,2.297203E0,2.7670336E0,3.5125732E-1,0E0,0E0,0E0,0E0,0E0,0E0,0E0,0E0,0E0,0E0,0E0,0E0,0E0,0E0,0E0,0E0,0E0,0E0,0E0,0E0,0E0,0E0],"parents":[2147483647,0,0,1,1,2,2,3,3,4,4,5,5,6,6,7,7,8,8,9,9,10,10,11,11,13,13,15,15,16,16,17,17,18,18,19,19,20,20,21,21,23,23,24,24,25,25,26,26],"right_children":[2,4,6,8,10,12,14,16,18,20,22,24,-1,26,-1,28,30,32,34,36,38,40,-1,42,44,46,48,-1,-1,-1,-1,-1,-1,-1,-1,-1,-1,-1,-1,-1,-1,-1,-1,-1,-1,-1,-1,-1,-1],"split_conditions":[9E0,6.9125E2,2E0,1.0818E2,7.6201E2,2E0,6E0,6E0,9E0,3E0,6E0,1E0,-4.678137E-2,1.1337E2,-4.0122315E-2,9.905E1,1.915E0,2E0,3.7067E2,4E0,2.4E1,8.8E1,-7.63177E-2,1.86E0,2E1,4.4624448E-1,6E0,1.940549E-2,-1.1264756E-2,3.8160298E-2,1.32099185E-2,-2.511409E-2,5.854002E-3,2.3145196E-5,1.9501066E-2,-6.384286E-2,-5.458889E-3,-6.912942E-2,9.1314815E-2,-1.2359055E-2,7.2993734E-3,5.7304915E-2,7.867834E-3,5.0632317E-2,3.2077845E-2,6.081594E-3,5.129313E-2,5.1128913E-2,2.805521E-2],"split_indices":[8,4,7,4,4,2,7,7,7,2,1,10,0,4,0,4,6,2,4,8,7,7,0,6,8,3,2,0,0,0,0,0,0,0,0,0,0,0,0,0,0,0,0,0,0,0,0,0,0],"split_type":[0,0,0,0,0,0,0,0,0,0,0,0,0,0,0,0,0,0,0,0,0,0,0,0,0,0,0,0,0,0,0,0,0,0,0,0,0,0,0,0,0,0,0,0,0,0,0,0,0],"sum_hessian":[2.2067678E4,2.1395682E4,6.719949E2,1.5076506E4,6.319176E3,1.6068805E2,5.113068E2,2.893793E3,1.2182713E4,3.2524637E2,5.9939297E3,1.5709508E2,3.592986E0,5.0961655E2,1.6902404E0,8.738078E2,2.0199852E3,2.4198994E3,9.762813E3,2.6112708E2,6.41193E1,5.9175503E3,7.6379364E1,7.000667E1,8.70884E1,1.4183544E1,4.95433E2,3.5419058E2,5.1961725E2,7.2027155E2,1.2997136E3,1.6347637E3,7.851357E2,7.8382446E3,1.9245691E3,2.3386108E2,2.7265993E1,3.1820404E1,3.2298893E1,5.100856E3,8.166942E2,1.3639361E1,5.6367306E1,4.8720646E1,3.836776E1,5.742924E0,8.440619E0,4.8983447E2,5.598552E0],"tree_param":{"num_deleted":"0","num_feature":"13","num_nodes":"49","size_leaf_vector":"1"}},{"base_weights":[1.7225188E-4,-2.7059188E-2,8.9320976E-1,1.7450312E-1,-1.1780776E-1,5.8339506E-1,9.908907E-1,-1.6552834E-1,3.0504042E-1,2.4395829E-2,-2.1035144E-1,6.56793E-1,-2.9752505E-1,9.984737E-1,-3.9439715E-2,6.1366804E-2,-9.034929E-1,4.2654276E-1,1.6621557E-1,8.698291E-2,-4.5088965E-1,-2.7576473E-1,3.056831E-2,3.2871556E-1,8.4334546E-1,4.537178E-1,-5.6030095E-2,9.0960634E-1,5.1670074E-2,1.0483474E-2,-1.4374167E-2,-5.9326787E-2,-2.1311201E-2,1.1904059E-2,3.1860147E-2,-1.1428074E-1,8.869329E-3,5.5487095E-3,-4.292411E-2,-6.481415E-2,-1.4423369E-2,-5.5907268E-2,-1.2420283E-2,-3.2211777E-2,7.496121E-3,2.495111E-2,-1.2803511E-1,4.3657202E-2,-3.467859E-2,-4.6379924E-2,4.897004E-2,4.9947146E-2,3.3558473E-2],"categories":[],"categories_nodes":[],"categories_segments":[],"categories_sizes":[],"default_left":[0,0,0,0,0,0,0,0,0,0,0,0,0,0,0,0,0,0,0,0,0,0,0,0,0,0,0,0,0,0,0,0,0,0,0,0,0,0,0,0,0,0,0,0,0,0,0,0,0,0,0,0,0],"id":30,"left_children":[1,3,5,7,9,11,13,15,17,19,21,23,25,27,-1,29,31,33,35,37,39,41,43,45,47,49,-1,51,-1,-1,-1,-1,-1,-1,-1,-1,-1,-1,-1,-1,-1,-1,-1,-1,-1,-1,-1,-1,-1,-1,-1,-1,-1],"loss_changes":[5.3482416E2,3.9038922E2,1.9116089E1,2.9415436E2,1.9367633E2,1.0438988E1,7.4454346E0,3.0792905E2,8.069479E1,1.7264696E2,1.4050354E2,8.6924515E0,8.468285E0,5.8618164E-1,0E0,7.2865074E1,5.7912964E1,1.01197266E2,6.1660316E1,1.16418396E2,9.2359146E1,1.6131335E2,1.5349304E2,2.822675E1,4.855171E0,6.3124228E0,0E0,2.462387E0,0E0,0E0,0E0,0E0,0E0,0E0,0E0,0E0,0E0,0E0,0E0,0E0,0E0,0E0,0E0,0E0,0E0,0E0,0E0,0E0,0E0,0E0,0E0,0E0,0E0],"parents":[2147483647,0,0,1,1,2,2,3,3,4,4,5,5,6,6,7,7,8,8,9,9,10,10,11,11,12,12,13,13,15,15,16,16,17,17,18,18,19,19,20,20,21,21,22,22,23,23,24,24,25,25,27,27],"right_children":[2,4,6,8,10,12,14,16,18,20,22,24,26,28,-1,30,32,34,36,38,40,42,44,46,48,50,-1,52,-1,-1,-1,-1,-1,-1,-1,-1,-1,-1,-1,-1,-1,-1,-1,-1,-1,-1,-1,-1,-1,-1,-1,-1,-1],"split_conditions":[9E0,1.3768E2,2E0,7E0,2E0,5.8541E2,6E0,1.1266E2,1E0,1.177582E4,2E0,2.16E0,4.4827586E-1,1.52E2,-3.9439715E-2,2E0,1E0,1.2E1,1.48E0,5E0,2.4E1,1.805E0,1.5E1,1.3491E2,2E0,4.4642857E-1,-5.6030095E-2,4.516129E-1,5.1670074E-2,1.0483474E-2,-1.4374167E-2,-5.9326787E-2,-2.1311201E-2,1.1904059E-2,3.1860147E-2,-1.1428074E-1,8.869329E-3,5.5487095E-3,-4.292411E-2,-6.481415E-2,-1.4423369E-2,-5.5907268E-2,-1.2420283E-2,-3.2211777E-2,7.496121E-3,2.495111E-2,-1.2803511E-1,4.3657202E-2,-3.467859E-2,-4.6379924E-2,4.897004E-2,4.9947146E-2,3.3558473E-2],"split_indices":[8,4,7,7,8,4,7,4,10,4,0,6,5,4,0,1,10,7,6,1,7,6,7,4,2,5,0,5,0,0,0,0,0,0,0,0,0,0,0,0,0,0,0,0,0,0,0,0,0,0,0,0,0],"split_type":[0,0,0,0,0,0,0,0,0,0,0,0,0,0,0,0,0,0,0,0,0,0,0,0,0,0,0,0,0,0,0,0,0,0,0,0,0,0,0,0,0,0,0,0,0,0,0,0,0,0,0,0,0],"sum_hessian":[2.199031E4,2.1340543E4,6.497686E2,6.624933E3,1.4715609E4,1.5742766E2,4.9234094E2,1.8377036E3,4.7872295E3,5.8015786E3,8.91403E3,1.4555453E2,1.1873127E1,4.9068912E2,1.6518044E0,1.4062528E3,4.314507E2,2.551784E3,2.2354456E3,5.127226E3,6.7435223E2,7.010446E3,1.903585E3,5.3764507E1,9.179002E1,6.442055E0,5.4310713E0,1.4607387E2,3.4461526E2,9.87042E2,4.192109E2,2.6990082E2,1.615499E2,1.3479795E3,1.2038044E3,9.215469E0,2.22623E3,5.0012026E3,1.2602344E2,1.0755535E2,5.667969E2,2.1927092E2,6.791175E3,2.854291E2,1.6181559E3,5.1553177E1,2.2113285E0,9.046787E1,1.32215E0,1.5650572E0,4.876998E0,1.0394036E2,4.213351E1],"tree_param":{"num_deleted":"0","num_feature":"13","num_nodes":"53","size_leaf_vector":"1"}},{"base_weights":[1.5508928E-4,-2.581056E-2,8.790147E-1,7.2407156E-2,-2.0005597E-1,5.671359E-1,9.787156E-1,2.2488643E-1,-4.607553E-2,-5.466593E-1,-1.4088471E-1,6.3854986E-1,-2.9507494E-1,9.86334E-1,-3.8777687E-2,1.14704296E-1,6.3303316E-1,-6.6892266E-2,-2.4492692E-2,-1.0145621E0,-3.1040546E-1,2.5361428E-1,-2.0603584E-1,3.142888E-1,8.26405E-1,4.4334307E-1,-5.5102408E-2,7.275534E-1,9.9772537E-1,1.178267E-2,-1.9635879E-2,4.108007E-2,1.631828E-2,-2.4025344E-4,-5.1950466E-2,-1.9870132E-2,-6.356963E-2,-4.4151763E-3,-6.2281918E-2,-1.9655934E-2,2.5442375E-2,-5.021484E-2,-8.89557E-3,2.4064224E-2,-1.203556E-1,4.2804033E-2,-3.4133475E-2,-4.5486115E-2,4.832555E-2,5.097456E-2,-3.9071343E-3,5.011318E-2,2.5937933E-2],"categories":[],"categories_nodes":[],"categories_segments":[],"categories_sizes":[],"default_left":[0,0,0,0,0,0,0,0,0,0,0,0,0,0,0,0,0,0,0,0,0,0,0,0,0,0,0,0,0,0,0,0,0,0,0,0,0,0,0,0,0,0,0,0,0,0,0,0,0,0,0,0,0],"id":31,"left_children":[1,3,5,7,9,11,13,15,17,19,21,23,25,27,-1,29,31,-1,33,35,37,39,41,43,45,47,-1,49,51,-1,-1,-1,-1,-1,-1,-1,-1,-1,-1,-1,-1,-1,-1,-1,-1,-1,-1,-1,-1,-1,-1,-1,-1],"loss_changes":[4.9999854E2,3.6422806E2,1.8995941E1,2.459042E2,1.5726526E2,9.713184E0,7.114197E0,2.675781E2,2.1352982E2,1.2331619E2,1.6851624E2,8.461475E0,7.9468017E0,6.697998E-1,0E0,2.8779056E2,7.2880585E1,0E0,1.5049847E2,5.890155E1,1.5455528E2,1.5362833E2,1.26128845E2,2.5759583E1,4.616661E0,6.010575E0,0E0,5.643733E0,4.5999146E-1,0E0,0E0,0E0,0E0,0E0,0E0,0E0,0E0,0E0,0E0,0E0,0E0,0E0,0E0,0E0,0E0,0E0,0E0,0E0,0E0,0E0,0E0,0E0,0E0],"parents":[2147483647,0,0,1,1,2,2,3,3,4,4,5,5,6,6,7,7,8,8,9,9,10,10,11,11,12,12,13,13,15,15,16,16,18,18,19,19,20,20,21,21,22,22,23,23,24,24,25,25,27,27,28,28],"right_children":[2,4,6,8,10,12,14,16,18,20,22,24,26,28,-1,30,32,-1,34,36,38,40,42,44,46,48,-1,50,52,-1,-1,-1,-1,-1,-1,-1,-1,-1,-1,-1,-1,-1,-1,-1,-1,-1,-1,-1,-1,-1,-1,-1,-1],"split_conditions":[9E0,5.6389E2,2E0,1E0,1.1E1,5.8541E2,6E0,2.76E0,3E0,1.137E1,7.0142E2,2.16E0,4.4827586E-1,1.1768E2,-3.8777687E-2,1.3583E2,5.272E2,-6.6892266E-2,1.837E1,8.96E0,1.177582E4,1.6E1,7.6201E2,1.3491E2,2E0,4.4642857E-1,-5.5102408E-2,3.030303E-1,6E0,1.178267E-2,-1.9635879E-2,4.108007E-2,1.631828E-2,-2.4025344E-4,-5.1950466E-2,-1.9870132E-2,-6.356963E-2,-4.4151763E-3,-6.2281918E-2,-1.9655934E-2,2.5442375E-2,-5.021484E-2,-8.89557E-3,2.4064224E-2,-1.203556E-1,4.2804033E-2,-3.4133475E-2,-4.5486115E-2,4.832555E-2,5.097456E-2,-3.9071343E-3,5.011318E-2,2.5937933E-2],"split_indices":[8,4,7,10,7,4,7,6,7,6,4,6,5,4,0,4,4,0,6,6,4,7,4,4,2,5,0,5,2,0,0,0,0,0,0,0,0,0,0,0,0,0,0,0,0,0,0,0,0,0,0,0,0],"split_type":[0,0,0,0,0,0,0,0,0,0,0,0,0,0,0,0,0,0,0,0,0,0,0,0,0,0,0,0,0,0,0,0,0,0,0,0,0,0,0,0,0,0,0,0,0,0,0,0,0,0,0,0,0],"sum_hessian":[2.190839E4,2.1280633E4,6.277594E2,1.3609747E4,7.670885E3,1.5368835E2,4.7407108E2,5.9506987E3,7.6590483E3,1.1173898E3,6.553495E3,1.4217213E2,1.151623E1,4.7245703E2,1.6140375E0,4.6867563E3,1.2639423E3,1.24861916E2,7.5341865E3,3.7379367E2,7.43596E2,9.284869E2,5.6250083E3,5.3132298E1,8.903983E1,6.248851E0,5.267379E0,2.2655428E1,4.498016E2,3.78508E3,9.016763E2,7.8163824E2,4.8230408E2,7.3917476E3,1.4243889E2,1.1059147E2,2.632022E2,6.017783E2,1.418177E2,2.6258502E2,6.6590186E2,1.9025508E2,5.434753E3,5.0835957E1,2.2963421E0,8.774702E1,1.2928172E0,1.5363994E0,4.7124515E0,1.6434984E1,6.2204432E0,4.444974E2,5.304175E0],"tree_param":{"num_deleted":"0","num_feature":"13","num_nodes":"53","size_leaf_vector":"1"}},{"base_weights":[1.3442575E-4,-2.4614053E-2,8.650518E-1,2.5350434E-1,-8.15068E-2,5.512105E-1,9.668109E-1,-1.734646E-1,3.4174466E-1,-3.5695124E-1,-3.705519E-2,3.2565346E-1,8.381653E-1,9.744673E-1,-3.8134973E-2,5.4988544E-2,-1.2627958E0,3.8204214E-1,-4.3546164E-1,-9.791067E-1,-2.4777335E-1,